{"forest": [{"children_left": [1, 2, 3, -1, 5, -1, -1, -1, 9, -1, 11, 12, 13, -1, 15, 16, -1, -1, 19, -1, 21, -1, 23, -1, 25, -1, -1, -1, -1], "children_right": [8, 7, 4, -1, 6, -1, -1, -1, 10, -1, 28, 27, 14, -1, 18, 17, -1, -1, 20, -1, 22, -1, 24, -1, 26, -1, -1, -1, -1], "feature": [0, 0, 0, -2, 0, -2, -2, -2, 0, -2, 0, 0, 0, -2, 0, 0, -2, -2, 0, -2, 0, -2, 0, -2, 0, -2, -2, -2, -2], "threshold": [21.5, 20.5, 18.5, -2.0, 19.5, -2.0, -2.0, -2.0, 22.5, -2.0, 31.5, 30.5, 23.5, -2.0, 25.5, 24.5, -2.0, -2.0, 26.5, -2.0, 27.5, -2.0, 28.5, -2.0, 29.5, -2.0, -2.0, -2.0, -2.0], "value": [[[0.275, 0.375, 0.35]], [[0.16666666666666666, 0.08333333333333333, 0.75]], [[0.5, 0.25, 0.25]], [[0.0, 0.0, 1.0]], [[0.6666666666666666, 0.3333333333333333, 0.0]], [[1.0, 0.0, 0.0]], [[0.0, 1.0, 0.0]], [[0.0, 0.0, 1.0]], [[0.32142857142857145, 0.5, 0.17857142857142858]], [[1.0, 0.0, 0.0]], [[0.20833333333333334, 0.5833333333333334, 0.20833333333333334]], [[0.2631578947368421, 0.47368421052631576, 0.2631578947368421]], [[0.17647058823529413, 0.5294117647058824, 0.29411764705882354]], [[0.0, 1.0, 0.0]], [[0.21428571428571427, 0.42857142857142855, 0.35714285714285715]], [[0.5, 0.0, 0.5]], [[0.0, 0.0, 1.0]], [[1.0, 0.0, 0.0]], [[0.1, 0.6, 0.3]], [[0.0, 1.0, 0.0]], [[0.14285714285714285, 0.42857142857142855, 0.42857142857142855]], [[0.0, 0.0, 1.0]], [[0.2, 0.6, 0.2]], [[1.0, 0.0, 0.0]], [[0.0, 0.75, 0.25]], [[0.0, 1.0, 0.0]], [[0.0, 0.0, 1.0]], [[1.0, 0.0, 0.0]], [[0.0, 1.0, 0.0]]]}, {"children_left": [1, 2, 3, 4, -1, 6, -1, -1, -1, 10, -1, 12, 13, 14, -1, 16, -1, -1, -1, 20, -1, 22, -1, 24, -1, 26, -1, -1, -1], "children_right": [28, 9, 8, 5, -1, 7, -1, -1, -1, 11, -1, 19, 18, 15, -1, 17, -1, -1, -1, 21, -1, 23, -1, 25, -1, 27, -1, -1, -1], "feature": [0, 0, 0, 0, -2, 0, -2, -2, -2, 0, -2, 0, 0, 0, -2, 0, -2, -2, -2, 0, -2, 0, -2, 0, -2, 0, -2, -2, -2], "threshold": [31.5, 21.5, 20.5, 18.5, -2.0, 19.5, -2.0, -2.0, -2.0, 22.5, -2.0, 26.5, 25.5, 23.5, -2.0, 24.5, -2.0, -2.0, -2.0, 27.5, -2.0, 28.5, -2.0, 29.5, -2.0, 30.5, -2.0, -2.0, -2.0], "value": [[[0.25, 0.425, 0.325]], [[0.2857142857142857, 0.34285714285714286, 0.37142857142857144]], [[0.18181818181818182, 0.18181818181818182, 0.6363636363636364]], [[0.3333333333333333, 0.3333333333333333, 0.3333333333333333]], [[0.0, 0.0, 1.0]], [[0.5, 0.5, 0.0]], [[1.0, 0.0, 0.0]], [[0.0, 1.0, 0.0]], [[0.0, 0.0, 1.0]], [[0.3333333333333333, 0.4166666666666667, 0.25]], [[1.0, 0.0, 0.0]], [[0.23809523809523808, 0.47619047619047616, 0.2857142857142857]], [[0.08333333333333333, 0.75, 0.16666666666666666]], [[0.2, 0.4, 0.4]], [[0.0, 1.0, 0.0]], [[0.3333333333333333, 0.0, 0.6666666666666666]], [[0.0, 0.0, 1.0]], [[1.0, 0.0, 0.0]], [[0.0, 1.0, 0.0]], [[0.4444444444444444, 0.1111111111111111, 0.4444444444444444]], [[0.0, 0.0, 1.0]], [[0.5714285714285714, 0.14285714285714285, 0.2857142857142857]], [[1.0, 0.0, 0.0]], [[0.25, 0.25, 0.5]], [[0.0, 1.0, 0.0]], [[0.3333333333333333, 0.0, 0.6666666666666666]], [[0.0, 0.0, 1.0]], [[1.0, 0.0, 0.0]], [[0.0, 1.0, 0.0]]]}, {"children_left": [1, 2, 3, -1, -1, -1, 7, -1, 9, 10, 11, 12, 13, 14, -1, 16, -1, -1, -1, -1, -1, -1, 23, -1, -1], "children_right": [6, 5, 4, -1, -1, -1, 8, -1, 22, 21, 20, 19, 18, 15, -1, 17, -1, -1, -1, -1, -1, -1, 24, -1, -1], "feature": [0, 0, 0, -2, -2, -2, 0, -2, 0, 0, 0, 0, 0, 0, -2, 0, -2, -2, -2, -2, -2, -2, 0, -2, -2], "threshold": [21.5, 20.0, 18.5, -2.0, -2.0, -2.0, 22.5, -2.0, 30.5, 29.5, 28.5, 27.0, 25.5, 23.5, -2.0, 24.5, -2.0, -2.0, -2.0, -2.0, -2.0, -2.0, 31.5, -2.0, -2.0], "value": [[[0.4, 0.325, 0.275]], [[0.2222222222222222, 0.0, 0.7777777777777778]], [[0.6666666666666666, 0.0, 0.3333333333333333]], [[0.0, 0.0, 1.0]], [[1.0, 0.0, 0.0]], [[0.0, 0.0, 1.0]], [[0.45161290322580644, 0.41935483870967744, 0.12903225806451613]], [[1.0, 0.0, 0.0]], [[0.32, 0.52, 0.16]], [[0.17647058823529413, 0.5882352941176471, 0.23529411764705882]], [[0.2, 0.6666666666666666, 0.13333333333333333]], [[0.3, 0.5, 0.2]], [[0.125, 0.625, 0.25]], [[0.2, 0.4, 0.4]], [[0.0, 1.0, 0.0]], [[0.3333333333333333, 0.0, 0.6666666666666666]], [[0.0, 0.0, 1.0]], [[1.0, 0.0, 0.0]], [[0.0, 1.0, 0.0]], [[1.0, 0.0, 0.0]], [[0.0, 1.0, 0.0]], [[0.0, 0.0, 1.0]], [[0.625, 0.375, 0.0]], [[1.0, 0.0, 0.0]], [[0.0, 1.0, 0.0]]]}, {"children_left": [1, 2, 3, 4, 5, -1, 7, -1, -1, -1, 11, -1, -1, -1, 15, -1, 17, 18, -1, 20, 21, -1, -1, -1, 25, -1, 27, -1, -1], "children_right": [14, 13, 10, 9, 6, -1, 8, -1, -1, -1, 12, -1, -1, -1, 16, -1, 24, 19, -1, 23, 22, -1, -1, -1, 26, -1, 28, -1, -1], "feature": [0, 0, 0, 0, 0, -2, 0, -2, -2, -2, 0, -2, -2, -2, 0, -2, 0, 0, -2, 0, 0, -2, -2, -2, 0, -2, 0, -2, -2], "threshold": [24.5, 23.5, 21.5, 20.5, 18.5, -2.0, 19.5, -2.0, -2.0, -2.0, 22.5, -2.0, -2.0, -2.0, 25.5, -2.0, 29.5, 26.5, -2.0, 28.5, 27.5, -2.0, -2.0, -2.0, 30.5, -2.0, 31.5, -2.0, -2.0], "value": [[[0.3, 0.275, 0.425]], [[0.21739130434782608, 0.17391304347826086, 0.6086956521739131]], [[0.3125, 0.25, 0.4375]], [[0.1111111111111111, 0.1111111111111111, 0.7777777777777778]], [[0.3333333333333333, 0.3333333333333333, 0.3333333333333333]], [[0.0, 0.0, 1.0]], [[0.5, 0.5, 0.0]], [[1.0, 0.0, 0.0]], [[0.0, 1.0, 0.0]], [[0.0, 0.0, 1.0]], [[0.5714285714285714, 0.42857142857142855, 0.0]], [[1.0, 0.0, 0.0]], [[0.0, 1.0, 0.0]], [[0.0, 0.0, 1.0]], [[0.4117647058823529, 0.4117647058823529, 0.17647058823529413]], [[1.0, 0.0, 0.0]], [[0.16666666666666666, 0.5833333333333334, 0.25]], [[0.125, 0.75, 0.125]], [[0.0, 1.0, 0.0]], [[0.2, 0.6, 0.2]], [[0.5, 0.0, 0.5]], [[0.0, 0.0, 1.0]], [[1.0, 0.0, 0.0]], [[0.0, 1.0, 0.0]], [[0.25, 0.25, 0.5]], [[0.0, 0.0, 1.0]], [[0.5, 0.5, 0.0]], [[1.0, 0.0, 0.0]], [[0.0, 1.0, 0.0]]]}, {"children_left": [1, 2, 3, 4, 5, 6, 7, -1, -1, -1, -1, 12, -1, -1, -1, 16, 17, 18, -1, 20, -1, -1, -1, 24, -1, -1, -1], "children_right": [26, 15, 14, 11, 10, 9, 8, -1, -1, -1, -1, 13, -1, -1, -1, 23, 22, 19, -1, 21, -1, -1, -1, 25, -1, -1, -1], "feature": [0, 0, 0, 0, 0, 0, 0, -2, -2, -2, -2, 0, -2, -2, -2, 0, 0, 0, -2, 0, -2, -2, -2, 0, -2, -2, -2], "threshold": [31.5, 24.5, 23.5, 21.5, 20.5, 19.5, 18.5, -2.0, -2.0, -2.0, -2.0, 22.5, -2.0, -2.0, -2.0, 29.5, 28.5, 25.5, -2.0, 27.0, -2.0, -2.0, -2.0, 30.5, -2.0, -2.0, -2.0], "value": [[[0.375, 0.325, 0.3]], [[0.4166666666666667, 0.25, 0.3333333333333333]], [[0.25, 0.3, 0.45]], [[0.29411764705882354, 0.35294117647058826, 0.35294117647058826]], [[0.16666666666666666, 0.3333333333333333, 0.5]], [[0.25, 0.5, 0.25]], [[0.5, 0.0, 0.5]], [[0.0, 0.0, 1.0]], [[1.0, 0.0, 0.0]], [[0.0, 1.0, 0.0]], [[0.0, 0.0, 1.0]], [[0.6, 0.4, 0.0]], [[1.0, 0.0, 0.0]], [[0.0, 1.0, 0.0]], [[0.0, 0.0, 1.0]], [[0.625, 0.1875, 0.1875]], [[0.7272727272727273, 0.2727272727272727, 0.0]], [[0.8, 0.2, 0.0]], [[1.0, 0.0, 0.0]], [[0.6666666666666666, 0.3333333333333333, 0.0]], [[0.0, 1.0, 0.0]], [[1.0, 0.0, 0.0]], [[0.0, 1.0, 0.0]], [[0.4, 0.0, 0.6]], [[0.0, 0.0, 1.0]], [[1.0, 0.0, 0.0]], [[0.0, 1.0, 0.0]]]}, {"children_left": [1, 2, -1, 4, -1, 6, -1, 8, -1, 10, -1, 12, 13, -1, -1, 16, -1, -1, 19, 20, -1, 22, -1, -1, -1], "children_right": [18, 3, -1, 5, -1, 7, -1, 9, -1, 11, -1, 15, 14, -1, -1, 17, -1, -1, 24, 21, -1, 23, -1, -1, -1], "feature": [0, 0, -2, 0, -2, 0, -2, 0, -2, 0, -2, 0, 0, -2, -2, 0, -2, -2, 0, 0, -2, 0, -2, -2, -2], "threshold": [26.5, 18.5, -2.0, 19.5, -2.0, 20.5, -2.0, 21.5, -2.0, 22.5, -2.0, 24.5, 23.5, -2.0, -2.0, 25.5, -2.0, -2.0, 30.5, 28.0, -2.0, 29.5, -2.0, -2.0, -2.0], "value": [[[0.375, 0.2, 0.425]], [[0.48148148148148145, 0.2222222222222222, 0.2962962962962963]], [[0.0, 0.0, 1.0]], [[0.5416666666666666, 0.25, 0.20833333333333334]], [[1.0, 0.0, 0.0]], [[0.35294117647058826, 0.35294117647058826, 0.29411764705882354]], [[0.0, 1.0, 0.0]], [[0.46153846153846156, 0.15384615384615385, 0.38461538461538464]], [[0.0, 0.0, 1.0]], [[0.6, 0.2, 0.2]], [[1.0, 0.0, 0.0]], [[0.3333333333333333, 0.3333333333333333, 0.3333333333333333]], [[0.0, 0.3333333333333333, 0.6666666666666666]], [[0.0, 1.0, 0.0]], [[0.0, 0.0, 1.0]], [[0.6666666666666666, 0.3333333333333333, 0.0]], [[1.0, 0.0, 0.0]], [[0.0, 1.0, 0.0]], [[0.15384615384615385, 0.15384615384615385, 0.6923076923076923]], [[0.0, 0.18181818181818182, 0.8181818181818182]], [[0.0, 0.0, 1.0]], [[0.0, 0.5, 0.5]], [[0.0, 1.0, 0.0]], [[0.0, 0.0, 1.0]], [[1.0, 0.0, 0.0]]]}, {"children_left": [1, 2, 3, 4, 5, 6, 7, 8, -1, 10, -1, -1, -1, -1, -1, -1, 17, -1, 19, -1, -1, -1, 23, -1, -1], "children_right": [22, 21, 16, 15, 14, 13, 12, 9, -1, 11, -1, -1, -1, -1, -1, -1, 18, -1, 20, -1, -1, -1, 24, -1, -1], "feature": [0, 0, 0, 0, 0, 0, 0, 0, -2, 0, -2, -2, -2, -2, -2, -2, 0, -2, 0, -2, -2, -2, 0, -2, -2], "threshold": [30.5, 29.5, 25.0, 23.5, 22.5, 21.5, 20.5, 18.5, -2.0, 19.5, -2.0, -2.0, -2.0, -2.0, -2.0, -2.0, 26.5, -2.0, 28.0, -2.0, -2.0, -2.0, 31.5, -2.0, -2.0], "value": [[[0.15, 0.375, 0.475]], [[0.10810810810810811, 0.3783783783783784, 0.5135135135135135]], [[0.125, 0.4375, 0.4375]], [[0.2, 0.25, 0.55]], [[0.25, 0.3125, 0.4375]], [[0.3076923076923077, 0.15384615384615385, 0.5384615384615384]], [[0.18181818181818182, 0.18181818181818182, 0.6363636363636364]], [[0.2857142857142857, 0.2857142857142857, 0.42857142857142855]], [[0.0, 0.0, 1.0]], [[0.5, 0.5, 0.0]], [[1.0, 0.0, 0.0]], [[0.0, 1.0, 0.0]], [[0.0, 0.0, 1.0]], [[1.0, 0.0, 0.0]], [[0.0, 1.0, 0.0]], [[0.0, 0.0, 1.0]], [[0.0, 0.75, 0.25]], [[0.0, 1.0, 0.0]], [[0.0, 0.4, 0.6]], [[0.0, 0.0, 1.0]], [[0.0, 1.0, 0.0]], [[0.0, 0.0, 1.0]], [[0.6666666666666666, 0.3333333333333333, 0.0]], [[1.0, 0.0, 0.0]], [[0.0, 1.0, 0.0]]]}, {"children_left": [1, -1, 3, -1, 5, 6, 7, -1, 9, -1, -1, -1, 13, 14, -1, 16, 17, 18, 19, -1, 21, -1, -1, -1, -1, -1, 27, -1, -1], "children_right": [2, -1, 4, -1, 12, 11, 8, -1, 10, -1, -1, -1, 26, 15, -1, 25, 24, 23, 20, -1, 22, -1, -1, -1, -1, -1, 28, -1, -1], "feature": [0, -2, 0, -2, 0, 0, 0, -2, 0, -2, -2, -2, 0, 0, -2, 0, 0, 0, 0, -2, 0, -2, -2, -2, -2, -2, 0, -2, -2], "threshold": [18.5, -2.0, 19.5, -2.0, 23.5, 22.5, 20.5, -2.0, 21.5, -2.0, -2.0, -2.0, 30.5, 24.5, -2.0, 29.5, 28.5, 27.5, 25.5, -2.0, 26.5, -2.0, -2.0, -2.0, -2.0, -2.0, 31.5, -2.0, -2.0], "value": [[[0.375, 0.25, 0.375]], [[0.0, 0.0, 1.0]], [[0.4166666666666667, 0.2777777777777778, 0.3055555555555556]], [[1.0, 0.0, 0.0]], [[0.25, 0.35714285714285715, 0.39285714285714285]], [[0.1111111111111111, 0.6666666666666666, 0.2222222222222222]], [[0.25, 0.25, 0.5]], [[0.0, 1.0, 0.0]], [[0.3333333333333333, 0.0, 0.6666666666666666]], [[0.0, 0.0, 1.0]], [[1.0, 0.0, 0.0]], [[0.0, 1.0, 0.0]], [[0.3157894736842105, 0.21052631578947367, 0.47368421052631576]], [[0.21428571428571427, 0.14285714285714285, 0.6428571428571429]], [[0.0, 0.0, 1.0]], [[0.3, 0.2, 0.5]], [[0.5, 0.3333333333333333, 0.16666666666666666]], [[0.6, 0.2, 0.2]], [[0.3333333333333333, 0.3333333333333333, 0.3333333333333333]], [[1.0, 0.0, 0.0]], [[0.0, 0.5, 0.5]], [[0.0, 1.0, 0.0]], [[0.0, 0.0, 1.0]], [[1.0, 0.0, 0.0]], [[0.0, 1.0, 0.0]], [[0.0, 0.0, 1.0]], [[0.6, 0.4, 0.0]], [[1.0, 0.0, 0.0]], [[0.0, 1.0, 0.0]]]}, {"children_left": [1, 2, 3, -1, 5, 6, 7, -1, 9, -1, -1, -1, 13, -1, 15, 16, 17, 18, 19, -1, -1, -1, -1, -1, 25, -1, -1, -1, -1], "children_right": [28, 27, 4, -1, 12, 11, 8, -1, 10, -1, -1, -1, 14, -1, 24, 23, 22, 21, 20, -1, -1, -1, -1, -1, 26, -1, -1, -1, -1], "feature": [0, 0, 0, -2, 0, 0, 0, -2, 0, -2, -2, -2, 0, -2, 0, 0, 0, 0, 0, -2, -2, -2, -2, -2, 0, -2, -2, -2, -2], "threshold": [31.5, 30.5, 18.5, -2.0, 22.5, 21.5, 19.5, -2.0, 20.5, -2.0, -2.0, -2.0, 23.5, -2.0, 28.5, 27.5, 26.5, 25.5, 24.5, -2.0, -2.0, -2.0, -2.0, -2.0, 29.5, -2.0, -2.0, -2.0, -2.0], "value": [[[0.375, 0.325, 0.3]], [[0.4166666666666667, 0.25, 0.3333333333333333]], [[0.34375, 0.28125, 0.375]], [[0.0, 0.0, 1.0]], [[0.3793103448275862, 0.3103448275862069, 0.3103448275862069]], [[0.6666666666666666, 0.1111111111111111, 0.2222222222222222]], [[0.4, 0.2, 0.4]], [[1.0, 0.0, 0.0]], [[0.0, 0.3333333333333333, 0.6666666666666666]], [[0.0, 1.0, 0.0]], [[0.0, 0.0, 1.0]], [[1.0, 0.0, 0.0]], [[0.25, 0.4, 0.35]], [[0.0, 1.0, 0.0]], [[0.2777777777777778, 0.3333333333333333, 0.3888888888888889]], [[0.35714285714285715, 0.21428571428571427, 0.42857142857142855]], [[0.18181818181818182, 0.2727272727272727, 0.5454545454545454]], [[0.2857142857142857, 0.42857142857142855, 0.2857142857142857]], [[0.5, 0.0, 0.5]], [[0.0, 0.0, 1.0]], [[1.0, 0.0, 0.0]], [[0.0, 1.0, 0.0]], [[0.0, 0.0, 1.0]], [[1.0, 0.0, 0.0]], [[0.0, 0.75, 0.25]], [[0.0, 1.0, 0.0]], [[0.0, 0.0, 1.0]], [[1.0, 0.0, 0.0]], [[0.0, 1.0, 0.0]]]}, {"children_left": [1, 2, 3, 4, -1, 6, -1, -1, -1, 10, -1, 12, -1, 14, 15, -1, -1, 18, 19, -1, 21, -1, 23, 24, -1, -1, -1, -1, -1], "children_right": [28, 9, 8, 5, -1, 7, -1, -1, -1, 11, -1, 13, -1, 17, 16, -1, -1, 27, 20, -1, 22, -1, 26, 25, -1, -1, -1, -1, -1], "feature": [0, 0, 0, 0, -2, 0, -2, -2, -2, 0, -2, 0, -2, 0, 0, -2, -2, 0, 0, -2, 0, -2, 0, 0, -2, -2, -2, -2, -2], "threshold": [31.5, 21.5, 20.5, 18.5, -2.0, 19.5, -2.0, -2.0, -2.0, 22.5, -2.0, 23.5, -2.0, 25.5, 24.5, -2.0, -2.0, 30.5, 26.5, -2.0, 27.5, -2.0, 29.5, 28.5, -2.0, -2.0, -2.0, -2.0, -2.0], "value": [[[0.375, 0.325, 0.3]], [[0.42857142857142855, 0.22857142857142856, 0.34285714285714286]], [[0.2222222222222222, 0.1111111111111111, 0.6666666666666666]], [[0.5, 0.25, 0.25]], [[0.0, 0.0, 1.0]], [[0.6666666666666666, 0.3333333333333333, 0.0]], [[1.0, 0.0, 0.0]], [[0.0, 1.0, 0.0]], [[0.0, 0.0, 1.0]], [[0.5, 0.2692307692307692, 0.23076923076923078]], [[1.0, 0.0, 0.0]], [[0.35, 0.35, 0.3]], [[0.0, 1.0, 0.0]], [[0.4375, 0.1875, 0.375]], [[0.8333333333333334, 0.0, 0.16666666666666666]], [[0.0, 0.0, 1.0]], [[1.0, 0.0, 0.0]], [[0.2, 0.3, 0.5]], [[0.1111111111111111, 0.3333333333333333, 0.5555555555555556]], [[0.0, 1.0, 0.0]], [[0.125, 0.25, 0.625]], [[0.0, 0.0, 1.0]], [[0.2, 0.4, 0.4]], [[0.3333333333333333, 0.6666666666666666, 0.0]], [[1.0, 0.0, 0.0]], [[0.0, 1.0, 0.0]], [[0.0, 0.0, 1.0]], [[1.0, 0.0, 0.0]], [[0.0, 1.0, 0.0]]]}, {"children_left": [1, 2, -1, 4, 5, 6, 7, 8, -1, -1, -1, 12, 13, -1, -1, -1, -1, 18, -1, 20, -1, 22, -1, -1, -1], "children_right": [24, 3, -1, 17, 16, 11, 10, 9, -1, -1, -1, 15, 14, -1, -1, -1, -1, 19, -1, 21, -1, 23, -1, -1, -1], "feature": [0, 0, -2, 0, 0, 0, 0, 0, -2, -2, -2, 0, 0, -2, -2, -2, -2, 0, -2, 0, -2, 0, -2, -2, -2], "threshold": [31.5, 18.5, -2.0, 26.5, 25.5, 21.5, 20.5, 19.5, -2.0, -2.0, -2.0, 24.5, 23.0, -2.0, -2.0, -2.0, -2.0, 27.5, -2.0, 29.0, -2.0, 30.5, -2.0, -2.0, -2.0], "value": [[[0.425, 0.25, 0.325]], [[0.4594594594594595, 0.1891891891891892, 0.35135135135135137]], [[0.0, 0.0, 1.0]], [[0.5, 0.20588235294117646, 0.29411764705882354]], [[0.5, 0.3181818181818182, 0.18181818181818182]], [[0.6111111111111112, 0.16666666666666666, 0.2222222222222222]], [[0.25, 0.375, 0.375]], [[0.4, 0.6, 0.0]], [[1.0, 0.0, 0.0]], [[0.0, 1.0, 0.0]], [[0.0, 0.0, 1.0]], [[0.9, 0.0, 0.1]], [[0.6666666666666666, 0.0, 0.3333333333333333]], [[1.0, 0.0, 0.0]], [[0.0, 0.0, 1.0]], [[1.0, 0.0, 0.0]], [[0.0, 1.0, 0.0]], [[0.5, 0.0, 0.5]], [[0.0, 0.0, 1.0]], [[0.75, 0.0, 0.25]], [[1.0, 0.0, 0.0]], [[0.5, 0.0, 0.5]], [[0.0, 0.0, 1.0]], [[1.0, 0.0, 0.0]], [[0.0, 1.0, 0.0]]]}, {"children_left": [1, 2, 3, 4, 5, -1, 7, -1, 9, -1, -1, 12, -1, 14, -1, 16, -1, 18, -1, -1, -1, -1, -1], "children_right": [22, 21, 20, 11, 6, -1, 8, -1, 10, -1, -1, 13, -1, 15, -1, 17, -1, 19, -1, -1, -1, -1, -1], "feature": [0, 0, 0, 0, 0, -2, 0, -2, 0, -2, -2, 0, -2, 0, -2, 0, -2, 0, -2, -2, -2, -2, -2], "threshold": [31.0, 29.0, 27.5, 22.5, 18.5, -2.0, 20.0, -2.0, 21.5, -2.0, -2.0, 23.5, -2.0, 24.5, -2.0, 25.5, -2.0, 26.5, -2.0, -2.0, -2.0, -2.0, -2.0], "value": [[[0.275, 0.3, 0.425]], [[0.3055555555555556, 0.2222222222222222, 0.4722222222222222]], [[0.34375, 0.25, 0.40625]], [[0.2222222222222222, 0.2962962962962963, 0.48148148148148145]], [[0.36363636363636365, 0.0, 0.6363636363636364]], [[0.0, 0.0, 1.0]], [[0.5, 0.0, 0.5]], [[1.0, 0.0, 0.0]], [[0.2, 0.0, 0.8]], [[0.0, 0.0, 1.0]], [[1.0, 0.0, 0.0]], [[0.125, 0.5, 0.375]], [[0.0, 1.0, 0.0]], [[0.16666666666666666, 0.3333333333333333, 0.5]], [[0.0, 0.0, 1.0]], [[0.2857142857142857, 0.5714285714285714, 0.14285714285714285]], [[1.0, 0.0, 0.0]], [[0.0, 0.8, 0.2]], [[0.0, 1.0, 0.0]], [[0.0, 0.0, 1.0]], [[1.0, 0.0, 0.0]], [[0.0, 0.0, 1.0]], [[0.0, 1.0, 0.0]]]}, {"children_left": [1, 2, 3, 4, -1, -1, -1, -1, 9, -1, 11, -1, 13, -1, 15, -1, 17, -1, 19, 20, 21, 22, 23, -1, -1, -1, -1, -1, -1], "children_right": [8, 7, 6, 5, -1, -1, -1, -1, 10, -1, 12, -1, 14, -1, 16, -1, 18, -1, 28, 27, 26, 25, 24, -1, -1, -1, -1, -1, -1], "feature": [0, 0, 0, 0, -2, -2, -2, -2, 0, -2, 0, -2, 0, -2, 0, -2, 0, -2, 0, 0, 0, 0, 0, -2, -2, -2, -2, -2, -2], "threshold": [21.5, 20.5, 19.5, 18.5, -2.0, -2.0, -2.0, -2.0, 22.5, -2.0, 23.5, -2.0, 24.5, -2.0, 25.5, -2.0, 26.5, -2.0, 31.5, 30.5, 29.5, 28.5, 27.5, -2.0, -2.0, -2.0, -2.0, -2.0, -2.0], "value": [[[0.225, 0.375, 0.4]], [[0.11764705882352941, 0.23529411764705882, 0.6470588235294118]], [[0.25, 0.5, 0.25]], [[0.5, 0.0, 0.5]], [[0.0, 0.0, 1.0]], [[1.0, 0.0, 0.0]], [[0.0, 1.0, 0.0]], [[0.0, 0.0, 1.0]], [[0.30434782608695654, 0.4782608695652174, 0.21739130434782608]], [[1.0, 0.0, 0.0]], [[0.23809523809523808, 0.5238095238095238, 0.23809523809523808]], [[0.0, 1.0, 0.0]], [[0.2777777777777778, 0.4444444444444444, 0.2777777777777778]], [[0.0, 0.0, 1.0]], [[0.3125, 0.5, 0.1875]], [[1.0, 0.0, 0.0]], [[0.21428571428571427, 0.5714285714285714, 0.21428571428571427]], [[0.0, 1.0, 0.0]], [[0.2727272727272727, 0.45454545454545453, 0.2727272727272727]], [[0.3333333333333333, 0.3333333333333333, 0.3333333333333333]], [[0.14285714285714285, 0.42857142857142855, 0.42857142857142855]], [[0.2, 0.6, 0.2]], [[0.5, 0.0, 0.5]], [[0.0, 0.0, 1.0]], [[1.0, 0.0, 0.0]], [[0.0, 1.0, 0.0]], [[0.0, 0.0, 1.0]], [[1.0, 0.0, 0.0]], [[0.0, 1.0, 0.0]]]}, {"children_left": [1, 2, 3, 4, -1, -1, -1, 8, 9, 10, 11, 12, -1, -1, 15, -1, 17, -1, 19, -1, -1, -1, -1, 24, -1, -1, -1], "children_right": [26, 7, 6, 5, -1, -1, -1, 23, 22, 21, 14, 13, -1, -1, 16, -1, 18, -1, 20, -1, -1, -1, -1, 25, -1, -1, -1], "feature": [0, 0, 0, 0, -2, -2, -2, 0, 0, 0, 0, 0, -2, -2, 0, -2, 0, -2, 0, -2, -2, -2, -2, 0, -2, -2, -2], "threshold": [31.5, 21.5, 20.0, 18.5, -2.0, -2.0, -2.0, 29.5, 28.5, 27.5, 23.5, 22.5, -2.0, -2.0, 24.5, -2.0, 25.5, -2.0, 26.5, -2.0, -2.0, -2.0, -2.0, 30.5, -2.0, -2.0, -2.0], "value": [[[0.2, 0.375, 0.425]], [[0.23529411764705882, 0.2647058823529412, 0.5]], [[0.25, 0.0, 0.75]], [[0.5, 0.0, 0.5]], [[0.0, 0.0, 1.0]], [[1.0, 0.0, 0.0]], [[0.0, 0.0, 1.0]], [[0.22727272727272727, 0.4090909090909091, 0.36363636363636365]], [[0.23529411764705882, 0.5294117647058824, 0.23529411764705882]], [[0.2857142857142857, 0.42857142857142855, 0.2857142857142857]], [[0.16666666666666666, 0.5, 0.3333333333333333]], [[0.2, 0.8, 0.0]], [[1.0, 0.0, 0.0]], [[0.0, 1.0, 0.0]], [[0.14285714285714285, 0.2857142857142857, 0.5714285714285714]], [[0.0, 0.0, 1.0]], [[0.25, 0.5, 0.25]], [[1.0, 0.0, 0.0]], [[0.0, 0.6666666666666666, 0.3333333333333333]], [[0.0, 1.0, 0.0]], [[0.0, 0.0, 1.0]], [[1.0, 0.0, 0.0]], [[0.0, 1.0, 0.0]], [[0.2, 0.0, 0.8]], [[0.0, 0.0, 1.0]], [[1.0, 0.0, 0.0]], [[0.0, 1.0, 0.0]]]}, {"children_left": [1, -1, 3, -1, 5, -1, 7, -1, 9, -1, 11, 12, 13, 14, -1, -1, -1, -1, 19, 20, -1, 22, 23, -1, -1, -1, 27, -1, -1], "children_right": [2, -1, 4, -1, 6, -1, 8, -1, 10, -1, 18, 17, 16, 15, -1, -1, -1, -1, 26, 21, -1, 25, 24, -1, -1, -1, 28, -1, -1], "feature": [0, -2, 0, -2, 0, -2, 0, -2, 0, -2, 0, 0, 0, 0, -2, -2, -2, -2, 0, 0, -2, 0, 0, -2, -2, -2, 0, -2, -2], "threshold": [18.5, -2.0, 19.5, -2.0, 20.5, -2.0, 21.5, -2.0, 22.5, -2.0, 26.5, 25.5, 24.5, 23.5, -2.0, -2.0, -2.0, -2.0, 30.5, 27.5, -2.0, 29.5, 28.5, -2.0, -2.0, -2.0, 31.5, -2.0, -2.0], "value": [[[0.35, 0.225, 0.425]], [[0.0, 0.0, 1.0]], [[0.3888888888888889, 0.25, 0.3611111111111111]], [[1.0, 0.0, 0.0]], [[0.3125, 0.28125, 0.40625]], [[0.0, 1.0, 0.0]], [[0.3448275862068966, 0.20689655172413793, 0.4482758620689655]], [[0.0, 0.0, 1.0]], [[0.38461538461538464, 0.23076923076923078, 0.38461538461538464]], [[1.0, 0.0, 0.0]], [[0.30434782608695654, 0.2608695652173913, 0.43478260869565216]], [[0.3333333333333333, 0.4444444444444444, 0.2222222222222222]], [[0.5, 0.16666666666666666, 0.3333333333333333]], [[0.0, 0.3333333333333333, 0.6666666666666666]], [[0.0, 1.0, 0.0]], [[0.0, 0.0, 1.0]], [[1.0, 0.0, 0.0]], [[0.0, 1.0, 0.0]], [[0.2857142857142857, 0.14285714285714285, 0.5714285714285714]], [[0.18181818181818182, 0.09090909090909091, 0.7272727272727273]], [[0.0, 0.0, 1.0]], [[0.2857142857142857, 0.14285714285714285, 0.5714285714285714]], [[0.6666666666666666, 0.3333333333333333, 0.0]], [[1.0, 0.0, 0.0]], [[0.0, 1.0, 0.0]], [[0.0, 0.0, 1.0]], [[0.6666666666666666, 0.3333333333333333, 0.0]], [[1.0, 0.0, 0.0]], [[0.0, 1.0, 0.0]]]}, {"children_left": [1, 2, -1, 4, -1, 6, -1, 8, 9, -1, 11, -1, -1, -1, 15, -1, 17, 18, -1, 20, -1, -1, -1], "children_right": [14, 3, -1, 5, -1, 7, -1, 13, 10, -1, 12, -1, -1, -1, 16, -1, 22, 19, -1, 21, -1, -1, -1], "feature": [0, 0, -2, 0, -2, 0, -2, 0, 0, -2, 0, -2, -2, -2, 0, -2, 0, 0, -2, 0, -2, -2, -2], "threshold": [25.5, 18.5, -2.0, 20.0, -2.0, 21.5, -2.0, 24.5, 22.5, -2.0, 23.5, -2.0, -2.0, -2.0, 26.5, -2.0, 31.0, 28.0, -2.0, 29.5, -2.0, -2.0, -2.0], "value": [[[0.375, 0.275, 0.35]], [[0.6, 0.08, 0.32]], [[0.0, 0.0, 1.0]], [[0.6521739130434783, 0.08695652173913043, 0.2608695652173913]], [[1.0, 0.0, 0.0]], [[0.5294117647058824, 0.11764705882352941, 0.35294117647058826]], [[0.0, 0.0, 1.0]], [[0.6428571428571429, 0.14285714285714285, 0.21428571428571427]], [[0.4444444444444444, 0.2222222222222222, 0.3333333333333333]], [[1.0, 0.0, 0.0]], [[0.0, 0.4, 0.6]], [[0.0, 1.0, 0.0]], [[0.0, 0.0, 1.0]], [[1.0, 0.0, 0.0]], [[0.0, 0.6, 0.4]], [[0.0, 1.0, 0.0]], [[0.0, 0.45454545454545453, 0.5454545454545454]], [[0.0, 0.14285714285714285, 0.8571428571428571]], [[0.0, 0.0, 1.0]], [[0.0, 0.25, 0.75]], [[0.0, 1.0, 0.0]], [[0.0, 0.0, 1.0]], [[0.0, 1.0, 0.0]]]}, {"children_left": [1, 2, 3, 4, 5, 6, 7, -1, -1, -1, -1, -1, -1, 14, 15, -1, 17, -1, -1, 20, -1, 22, -1, -1, -1], "children_right": [24, 13, 12, 11, 10, 9, 8, -1, -1, -1, -1, -1, -1, 19, 16, -1, 18, -1, -1, 21, -1, 23, -1, -1, -1], "feature": [0, 0, 0, 0, 0, 0, 0, -2, -2, -2, -2, -2, -2, 0, 0, -2, 0, -2, -2, 0, -2, 0, -2, -2, -2], "threshold": [31.5, 24.5, 23.5, 22.5, 21.5, 20.0, 18.5, -2.0, -2.0, -2.0, -2.0, -2.0, -2.0, 28.5, 25.5, -2.0, 27.0, -2.0, -2.0, 29.5, -2.0, 30.5, -2.0, -2.0, -2.0], "value": [[[0.375, 0.2, 0.425]], [[0.40540540540540543, 0.13513513513513514, 0.4594594594594595]], [[0.2608695652173913, 0.13043478260869565, 0.6086956521739131]], [[0.375, 0.1875, 0.4375]], [[0.46153846153846156, 0.0, 0.5384615384615384]], [[0.36363636363636365, 0.0, 0.6363636363636364]], [[0.6666666666666666, 0.0, 0.3333333333333333]], [[0.0, 0.0, 1.0]], [[1.0, 0.0, 0.0]], [[0.0, 0.0, 1.0]], [[1.0, 0.0, 0.0]], [[0.0, 1.0, 0.0]], [[0.0, 0.0, 1.0]], [[0.6428571428571429, 0.14285714285714285, 0.21428571428571427]], [[0.8888888888888888, 0.1111111111111111, 0.0]], [[1.0, 0.0, 0.0]], [[0.75, 0.25, 0.0]], [[0.0, 1.0, 0.0]], [[1.0, 0.0, 0.0]], [[0.2, 0.2, 0.6]], [[0.0, 1.0, 0.0]], [[0.25, 0.0, 0.75]], [[0.0, 0.0, 1.0]], [[1.0, 0.0, 0.0]], [[0.0, 1.0, 0.0]]]}, {"children_left": [1, 2, -1, 4, -1, 6, -1, 8, 9, -1, 11, 12, -1, -1, 15, -1, 17, -1, -1, 20, -1, 22, -1, -1, -1], "children_right": [24, 3, -1, 5, -1, 7, -1, 19, 10, -1, 14, 13, -1, -1, 16, -1, 18, -1, -1, 21, -1, 23, -1, -1, -1], "feature": [0, 0, -2, 0, -2, 0, -2, 0, 0, -2, 0, 0, -2, -2, 0, -2, 0, -2, -2, 0, -2, 0, -2, -2, -2], "threshold": [31.5, 18.5, -2.0, 19.5, -2.0, 20.5, -2.0, 27.5, 21.5, -2.0, 23.5, 22.5, -2.0, -2.0, 24.5, -2.0, 26.0, -2.0, -2.0, 28.5, -2.0, 30.0, -2.0, -2.0, -2.0], "value": [[[0.45, 0.325, 0.225]], [[0.5, 0.25, 0.25]], [[0.0, 0.0, 1.0]], [[0.5294117647058824, 0.2647058823529412, 0.20588235294117646]], [[1.0, 0.0, 0.0]], [[0.42857142857142855, 0.32142857142857145, 0.25]], [[0.0, 1.0, 0.0]], [[0.5, 0.20833333333333334, 0.2916666666666667]], [[0.375, 0.1875, 0.4375]], [[0.0, 0.0, 1.0]], [[0.42857142857142855, 0.21428571428571427, 0.35714285714285715]], [[0.5, 0.5, 0.0]], [[1.0, 0.0, 0.0]], [[0.0, 1.0, 0.0]], [[0.375, 0.0, 0.625]], [[0.0, 0.0, 1.0]], [[0.6, 0.0, 0.4]], [[1.0, 0.0, 0.0]], [[0.0, 0.0, 1.0]], [[0.75, 0.25, 0.0]], [[1.0, 0.0, 0.0]], [[0.5, 0.5, 0.0]], [[0.0, 1.0, 0.0]], [[1.0, 0.0, 0.0]], [[0.0, 1.0, 0.0]]]}, {"children_left": [1, 2, 3, 4, 5, -1, -1, 8, -1, 10, 11, 12, -1, -1, 15, -1, 17, -1, 19, -1, 21, -1, -1, -1, -1, -1, -1], "children_right": [26, 25, 24, 7, 6, -1, -1, 9, -1, 23, 14, 13, -1, -1, 16, -1, 18, -1, 20, -1, 22, -1, -1, -1, -1, -1, -1], "feature": [0, 0, 0, 0, 0, -2, -2, 0, -2, 0, 0, 0, -2, -2, 0, -2, 0, -2, 0, -2, 0, -2, -2, -2, -2, -2, -2], "threshold": [31.5, 30.0, 28.5, 19.5, 18.5, -2.0, -2.0, 20.5, -2.0, 27.5, 22.5, 21.5, -2.0, -2.0, 23.5, -2.0, 24.5, -2.0, 25.5, -2.0, 26.5, -2.0, -2.0, -2.0, -2.0, -2.0, -2.0], "value": [[[0.475, 0.4, 0.125]], [[0.5277777777777778, 0.3333333333333333, 0.1388888888888889]], [[0.45161290322580644, 0.3870967741935484, 0.16129032258064516]], [[0.5384615384615384, 0.2692307692307692, 0.19230769230769232]], [[0.8571428571428571, 0.0, 0.14285714285714285]], [[0.0, 0.0, 1.0]], [[1.0, 0.0, 0.0]], [[0.42105263157894735, 0.3684210526315789, 0.21052631578947367]], [[0.0, 1.0, 0.0]], [[0.5, 0.25, 0.25]], [[0.38461538461538464, 0.3076923076923077, 0.3076923076923077]], [[0.75, 0.0, 0.25]], [[0.0, 0.0, 1.0]], [[1.0, 0.0, 0.0]], [[0.2222222222222222, 0.4444444444444444, 0.3333333333333333]], [[0.0, 1.0, 0.0]], [[0.3333333333333333, 0.16666666666666666, 0.5]], [[0.0, 0.0, 1.0]], [[0.5, 0.25, 0.25]], [[1.0, 0.0, 0.0]], [[0.0, 0.5, 0.5]], [[0.0, 1.0, 0.0]], [[0.0, 0.0, 1.0]], [[1.0, 0.0, 0.0]], [[0.0, 1.0, 0.0]], [[1.0, 0.0, 0.0]], [[0.0, 1.0, 0.0]]]}, {"children_left": [1, 2, 3, -1, -1, 6, 7, 8, 9, -1, -1, 12, -1, 14, 15, -1, 17, -1, -1, -1, -1, 22, -1, 24, -1, 26, -1, -1, -1], "children_right": [28, 5, 4, -1, -1, 21, 20, 11, 10, -1, -1, 13, -1, 19, 16, -1, 18, -1, -1, -1, -1, 23, -1, 25, -1, 27, -1, -1, -1], "feature": [0, 0, 0, -2, -2, 0, 0, 0, 0, -2, -2, 0, -2, 0, 0, -2, 0, -2, -2, -2, -2, 0, -2, 0, -2, 0, -2, -2, -2], "threshold": [31.5, 19.5, 18.5, -2.0, -2.0, 27.5, 26.5, 21.5, 20.5, -2.0, -2.0, 22.5, -2.0, 25.5, 23.5, -2.0, 24.5, -2.0, -2.0, -2.0, -2.0, 28.5, -2.0, 29.5, -2.0, 30.5, -2.0, -2.0, -2.0], "value": [[[0.45, 0.275, 0.275]], [[0.4864864864864865, 0.21621621621621623, 0.2972972972972973]], [[0.8571428571428571, 0.0, 0.14285714285714285]], [[0.0, 0.0, 1.0]], [[1.0, 0.0, 0.0]], [[0.4, 0.26666666666666666, 0.3333333333333333]], [[0.23529411764705882, 0.23529411764705882, 0.5294117647058824]], [[0.3333333333333333, 0.3333333333333333, 0.3333333333333333]], [[0.0, 0.25, 0.75]], [[0.0, 1.0, 0.0]], [[0.0, 0.0, 1.0]], [[0.5, 0.375, 0.125]], [[1.0, 0.0, 0.0]], [[0.2, 0.6, 0.2]], [[0.3333333333333333, 0.3333333333333333, 0.3333333333333333]], [[0.0, 1.0, 0.0]], [[0.5, 0.0, 0.5]], [[0.0, 0.0, 1.0]], [[1.0, 0.0, 0.0]], [[0.0, 1.0, 0.0]], [[0.0, 0.0, 1.0]], [[0.6153846153846154, 0.3076923076923077, 0.07692307692307693]], [[1.0, 0.0, 0.0]], [[0.4444444444444444, 0.4444444444444444, 0.1111111111111111]], [[0.0, 1.0, 0.0]], [[0.8, 0.0, 0.2]], [[0.0, 0.0, 1.0]], [[1.0, 0.0, 0.0]], [[0.0, 1.0, 0.0]]]}, {"children_left": [1, 2, 3, 4, 5, -1, -1, 8, 9, -1, -1, 12, -1, 14, -1, 16, 17, -1, 19, -1, 21, -1, -1, -1, -1, -1, -1], "children_right": [26, 25, 24, 7, 6, -1, -1, 11, 10, -1, -1, 13, -1, 15, -1, 23, 18, -1, 20, -1, 22, -1, -1, -1, -1, -1, -1], "feature": [0, 0, 0, 0, 0, -2, -2, 0, 0, -2, -2, 0, -2, 0, -2, 0, 0, -2, 0, -2, 0, -2, -2, -2, -2, -2, -2], "threshold": [31.5, 30.5, 29.5, 19.5, 18.5, -2.0, -2.0, 21.5, 20.5, -2.0, -2.0, 22.5, -2.0, 23.5, -2.0, 28.5, 24.5, -2.0, 25.5, -2.0, 27.0, -2.0, -2.0, -2.0, -2.0, -2.0, -2.0], "value": [[[0.5, 0.35, 0.15]], [[0.5263157894736842, 0.3157894736842105, 0.15789473684210525]], [[0.47058823529411764, 0.35294117647058826, 0.17647058823529413]], [[0.5, 0.375, 0.125]], [[0.8, 0.0, 0.2]], [[0.0, 0.0, 1.0]], [[1.0, 0.0, 0.0]], [[0.4444444444444444, 0.4444444444444444, 0.1111111111111111]], [[0.0, 0.6, 0.4]], [[0.0, 1.0, 0.0]], [[0.0, 0.0, 1.0]], [[0.5454545454545454, 0.4090909090909091, 0.045454545454545456]], [[1.0, 0.0, 0.0]], [[0.4444444444444444, 0.5, 0.05555555555555555]], [[0.0, 1.0, 0.0]], [[0.5714285714285714, 0.35714285714285715, 0.07142857142857142]], [[0.6666666666666666, 0.25, 0.08333333333333333]], [[0.0, 0.0, 1.0]], [[0.7272727272727273, 0.2727272727272727, 0.0]], [[1.0, 0.0, 0.0]], [[0.5714285714285714, 0.42857142857142855, 0.0]], [[0.0, 1.0, 0.0]], [[1.0, 0.0, 0.0]], [[0.0, 1.0, 0.0]], [[0.0, 0.0, 1.0]], [[1.0, 0.0, 0.0]], [[0.0, 1.0, 0.0]]]}, {"children_left": [1, 2, -1, 4, -1, 6, 7, -1, -1, 10, -1, 12, 13, -1, -1, -1, 17, -1, 19, 20, -1, -1, -1], "children_right": [16, 3, -1, 5, -1, 9, 8, -1, -1, 11, -1, 15, 14, -1, -1, -1, 18, -1, 22, 21, -1, -1, -1], "feature": [0, 0, -2, 0, -2, 0, 0, -2, -2, 0, -2, 0, 0, -2, -2, -2, 0, -2, 0, 0, -2, -2, -2], "threshold": [25.5, 18.5, -2.0, 19.5, -2.0, 21.5, 20.5, -2.0, -2.0, 22.5, -2.0, 24.5, 23.5, -2.0, -2.0, -2.0, 29.5, -2.0, 31.5, 30.5, -2.0, -2.0, -2.0], "value": [[[0.375, 0.3, 0.325]], [[0.5185185185185185, 0.1111111111111111, 0.37037037037037035]], [[0.0, 0.0, 1.0]], [[0.56, 0.12, 0.32]], [[1.0, 0.0, 0.0]], [[0.42105263157894735, 0.15789473684210525, 0.42105263157894735]], [[0.0, 0.2857142857142857, 0.7142857142857143]], [[0.0, 1.0, 0.0]], [[0.0, 0.0, 1.0]], [[0.6666666666666666, 0.08333333333333333, 0.25]], [[1.0, 0.0, 0.0]], [[0.42857142857142855, 0.14285714285714285, 0.42857142857142855]], [[0.0, 0.25, 0.75]], [[0.0, 1.0, 0.0]], [[0.0, 0.0, 1.0]], [[1.0, 0.0, 0.0]], [[0.07692307692307693, 0.6923076923076923, 0.23076923076923078]], [[0.0, 1.0, 0.0]], [[0.125, 0.5, 0.375]], [[0.25, 0.0, 0.75]], [[0.0, 0.0, 1.0]], [[1.0, 0.0, 0.0]], [[0.0, 1.0, 0.0]]]}, {"children_left": [1, 2, 3, 4, 5, 6, -1, -1, -1, -1, 11, -1, 13, -1, -1, -1, 17, -1, 19, -1, 21, 22, -1, -1, -1], "children_right": [16, 15, 10, 9, 8, 7, -1, -1, -1, -1, 12, -1, 14, -1, -1, -1, 18, -1, 20, -1, 24, 23, -1, -1, -1], "feature": [0, 0, 0, 0, 0, 0, -2, -2, -2, -2, 0, -2, 0, -2, -2, -2, 0, -2, 0, -2, 0, 0, -2, -2, -2], "threshold": [25.5, 24.5, 21.5, 20.5, 19.5, 18.5, -2.0, -2.0, -2.0, -2.0, 22.5, -2.0, 23.5, -2.0, -2.0, -2.0, 26.5, -2.0, 28.0, -2.0, 31.5, 30.0, -2.0, -2.0, -2.0], "value": [[[0.2, 0.5, 0.3]], [[0.2916666666666667, 0.25, 0.4583333333333333]], [[0.19047619047619047, 0.2857142857142857, 0.5238095238095238]], [[0.09090909090909091, 0.18181818181818182, 0.7272727272727273]], [[0.25, 0.5, 0.25]], [[0.5, 0.0, 0.5]], [[0.0, 0.0, 1.0]], [[1.0, 0.0, 0.0]], [[0.0, 1.0, 0.0]], [[0.0, 0.0, 1.0]], [[0.3, 0.4, 0.3]], [[1.0, 0.0, 0.0]], [[0.0, 0.5714285714285714, 0.42857142857142855]], [[0.0, 1.0, 0.0]], [[0.0, 0.0, 1.0]], [[1.0, 0.0, 0.0]], [[0.0625, 0.875, 0.0625]], [[0.0, 1.0, 0.0]], [[0.1111111111111111, 0.7777777777777778, 0.1111111111111111]], [[0.0, 0.0, 1.0]], [[0.125, 0.875, 0.0]], [[0.25, 0.75, 0.0]], [[0.0, 1.0, 0.0]], [[1.0, 0.0, 0.0]], [[0.0, 1.0, 0.0]]]}, {"children_left": [1, -1, 3, 4, 5, 6, 7, 8, 9, -1, -1, -1, -1, -1, 15, -1, 17, -1, 19, -1, 21, -1, -1, -1, 25, -1, 27, -1, -1], "children_right": [2, -1, 24, 23, 14, 13, 12, 11, 10, -1, -1, -1, -1, -1, 16, -1, 18, -1, 20, -1, 22, -1, -1, -1, 26, -1, 28, -1, -1], "feature": [0, -2, 0, 0, 0, 0, 0, 0, 0, -2, -2, -2, -2, -2, 0, -2, 0, -2, 0, -2, 0, -2, -2, -2, 0, -2, 0, -2, -2], "threshold": [18.5, -2.0, 29.5, 28.5, 23.5, 22.5, 21.5, 20.5, 19.5, -2.0, -2.0, -2.0, -2.0, -2.0, 24.5, -2.0, 25.5, -2.0, 26.5, -2.0, 27.5, -2.0, -2.0, -2.0, 30.5, -2.0, 31.5, -2.0, -2.0], "value": [[[0.225, 0.325, 0.45]], [[0.0, 0.0, 1.0]], [[0.25, 0.3611111111111111, 0.3888888888888889]], [[0.32, 0.44, 0.24]], [[0.36363636363636365, 0.36363636363636365, 0.2727272727272727]], [[0.3076923076923077, 0.5384615384615384, 0.15384615384615385]], [[0.5, 0.25, 0.25]], [[0.2, 0.4, 0.4]], [[0.3333333333333333, 0.6666666666666666, 0.0]], [[1.0, 0.0, 0.0]], [[0.0, 1.0, 0.0]], [[0.0, 0.0, 1.0]], [[1.0, 0.0, 0.0]], [[0.0, 1.0, 0.0]], [[0.4444444444444444, 0.1111111111111111, 0.4444444444444444]], [[0.0, 0.0, 1.0]], [[0.5714285714285714, 0.14285714285714285, 0.2857142857142857]], [[1.0, 0.0, 0.0]], [[0.25, 0.25, 0.5]], [[0.0, 1.0, 0.0]], [[0.3333333333333333, 0.0, 0.6666666666666666]], [[0.0, 0.0, 1.0]], [[1.0, 0.0, 0.0]], [[0.0, 1.0, 0.0]], [[0.09090909090909091, 0.18181818181818182, 0.7272727272727273]], [[0.0, 0.0, 1.0]], [[0.3333333333333333, 0.6666666666666666, 0.0]], [[1.0, 0.0, 0.0]], [[0.0, 1.0, 0.0]]]}, {"children_left": [1, 2, -1, 4, -1, 6, -1, 8, -1, -1, 11, 12, -1, 14, -1, -1, 17, 18, 19, 20, -1, 22, -1, -1, -1, -1, -1], "children_right": [10, 3, -1, 5, -1, 7, -1, 9, -1, -1, 16, 13, -1, 15, -1, -1, 26, 25, 24, 21, -1, 23, -1, -1, -1, -1, -1], "feature": [0, 0, -2, 0, -2, 0, -2, 0, -2, -2, 0, 0, -2, 0, -2, -2, 0, 0, 0, 0, -2, 0, -2, -2, -2, -2, -2], "threshold": [22.5, 18.5, -2.0, 19.5, -2.0, 20.5, -2.0, 21.5, -2.0, -2.0, 26.5, 24.0, -2.0, 25.5, -2.0, -2.0, 31.5, 30.5, 29.5, 27.5, -2.0, 28.5, -2.0, -2.0, -2.0, -2.0, -2.0], "value": [[[0.225, 0.45, 0.325]], [[0.46153846153846156, 0.15384615384615385, 0.38461538461538464]], [[0.0, 0.0, 1.0]], [[0.5454545454545454, 0.18181818181818182, 0.2727272727272727]], [[1.0, 0.0, 0.0]], [[0.2857142857142857, 0.2857142857142857, 0.42857142857142855]], [[0.0, 1.0, 0.0]], [[0.4, 0.0, 0.6]], [[0.0, 0.0, 1.0]], [[1.0, 0.0, 0.0]], [[0.1111111111111111, 0.5925925925925926, 0.2962962962962963]], [[0.1111111111111111, 0.8888888888888888, 0.0]], [[0.0, 1.0, 0.0]], [[0.25, 0.75, 0.0]], [[1.0, 0.0, 0.0]], [[0.0, 1.0, 0.0]], [[0.1111111111111111, 0.4444444444444444, 0.4444444444444444]], [[0.15384615384615385, 0.23076923076923078, 0.6153846153846154]], [[0.08333333333333333, 0.25, 0.6666666666666666]], [[0.14285714285714285, 0.42857142857142855, 0.42857142857142855]], [[0.0, 0.0, 1.0]], [[0.25, 0.75, 0.0]], [[1.0, 0.0, 0.0]], [[0.0, 1.0, 0.0]], [[0.0, 0.0, 1.0]], [[1.0, 0.0, 0.0]], [[0.0, 1.0, 0.0]]]}, {"children_left": [1, 2, 3, -1, -1, 6, -1, 8, -1, 10, -1, 12, 13, -1, -1, 16, -1, 18, -1, -1, 21, -1, 23, -1, -1], "children_right": [20, 5, 4, -1, -1, 7, -1, 9, -1, 11, -1, 15, 14, -1, -1, 17, -1, 19, -1, -1, 22, -1, 24, -1, -1], "feature": [0, 0, 0, -2, -2, 0, -2, 0, -2, 0, -2, 0, 0, -2, -2, 0, -2, 0, -2, -2, 0, -2, 0, -2, -2], "threshold": [29.0, 19.5, 18.5, -2.0, -2.0, 20.5, -2.0, 21.5, -2.0, 22.5, -2.0, 24.5, 23.5, -2.0, -2.0, 25.5, -2.0, 27.0, -2.0, -2.0, 30.5, -2.0, 31.5, -2.0, -2.0], "value": [[[0.375, 0.275, 0.35]], [[0.4482758620689655, 0.3103448275862069, 0.2413793103448276]], [[0.8, 0.0, 0.2]], [[0.0, 0.0, 1.0]], [[1.0, 0.0, 0.0]], [[0.375, 0.375, 0.25]], [[0.0, 1.0, 0.0]], [[0.45, 0.25, 0.3]], [[0.0, 0.0, 1.0]], [[0.5, 0.2777777777777778, 0.2222222222222222]], [[1.0, 0.0, 0.0]], [[0.3076923076923077, 0.38461538461538464, 0.3076923076923077]], [[0.0, 0.3333333333333333, 0.6666666666666666]], [[0.0, 1.0, 0.0]], [[0.0, 0.0, 1.0]], [[0.5714285714285714, 0.42857142857142855, 0.0]], [[1.0, 0.0, 0.0]], [[0.4, 0.6, 0.0]], [[0.0, 1.0, 0.0]], [[1.0, 0.0, 0.0]], [[0.18181818181818182, 0.18181818181818182, 0.6363636363636364]], [[0.0, 0.0, 1.0]], [[0.5, 0.5, 0.0]], [[1.0, 0.0, 0.0]], [[0.0, 1.0, 0.0]]]}, {"children_left": [1, 2, 3, -1, -1, 6, 7, 8, 9, 10, -1, -1, -1, -1, -1, 16, -1, 18, -1, 20, -1, 22, -1, 24, -1, 26, -1, -1, -1], "children_right": [28, 5, 4, -1, -1, 15, 14, 13, 12, 11, -1, -1, -1, -1, -1, 17, -1, 19, -1, 21, -1, 23, -1, 25, -1, 27, -1, -1, -1], "feature": [0, 0, 0, -2, -2, 0, 0, 0, 0, 0, -2, -2, -2, -2, -2, 0, -2, 0, -2, 0, -2, 0, -2, 0, -2, 0, -2, -2, -2], "threshold": [31.5, 19.5, 18.5, -2.0, -2.0, 24.5, 23.5, 22.5, 21.5, 20.5, -2.0, -2.0, -2.0, -2.0, -2.0, 25.5, -2.0, 26.5, -2.0, 27.5, -2.0, 28.5, -2.0, 29.5, -2.0, 30.5, -2.0, -2.0, -2.0], "value": [[[0.425, 0.275, 0.3]], [[0.4594594594594595, 0.21621621621621623, 0.32432432432432434]], [[0.8571428571428571, 0.0, 0.14285714285714285]], [[0.0, 0.0, 1.0]], [[1.0, 0.0, 0.0]], [[0.36666666666666664, 0.26666666666666666, 0.36666666666666664]], [[0.15384615384615385, 0.3076923076923077, 0.5384615384615384]], [[0.2222222222222222, 0.4444444444444444, 0.3333333333333333]], [[0.3333333333333333, 0.16666666666666666, 0.5]], [[0.0, 0.25, 0.75]], [[0.0, 1.0, 0.0]], [[0.0, 0.0, 1.0]], [[1.0, 0.0, 0.0]], [[0.0, 1.0, 0.0]], [[0.0, 0.0, 1.0]], [[0.5294117647058824, 0.23529411764705882, 0.23529411764705882]], [[1.0, 0.0, 0.0]], [[0.3333333333333333, 0.3333333333333333, 0.3333333333333333]], [[0.0, 1.0, 0.0]], [[0.4, 0.2, 0.4]], [[0.0, 0.0, 1.0]], [[0.5, 0.25, 0.25]], [[1.0, 0.0, 0.0]], [[0.3333333333333333, 0.3333333333333333, 0.3333333333333333]], [[0.0, 1.0, 0.0]], [[0.5, 0.0, 0.5]], [[0.0, 0.0, 1.0]], [[1.0, 0.0, 0.0]], [[0.0, 1.0, 0.0]]]}, {"children_left": [1, 2, -1, -1, 5, -1, 7, -1, 9, -1, 11, 12, -1, 14, 15, -1, -1, 18, -1, 20, 21, -1, -1, -1, 25, -1, 27, -1, -1], "children_right": [4, 3, -1, -1, 6, -1, 8, -1, 10, -1, 24, 13, -1, 17, 16, -1, -1, 19, -1, 23, 22, -1, -1, -1, 26, -1, 28, -1, -1], "feature": [0, 0, -2, -2, 0, -2, 0, -2, 0, -2, 0, 0, -2, 0, 0, -2, -2, 0, -2, 0, 0, -2, -2, -2, 0, -2, 0, -2, -2], "threshold": [19.5, 18.5, -2.0, -2.0, 20.5, -2.0, 21.5, -2.0, 22.5, -2.0, 29.5, 23.5, -2.0, 25.5, 24.5, -2.0, -2.0, 26.5, -2.0, 28.5, 27.5, -2.0, -2.0, -2.0, 30.5, -2.0, 31.5, -2.0, -2.0], "value": [[[0.275, 0.425, 0.3]], [[0.8, 0.0, 0.2]], [[0.0, 0.0, 1.0]], [[1.0, 0.0, 0.0]], [[0.2, 0.4857142857142857, 0.3142857142857143]], [[0.0, 1.0, 0.0]], [[0.21875, 0.4375, 0.34375]], [[0.0, 0.0, 1.0]], [[0.25, 0.5, 0.25]], [[1.0, 0.0, 0.0]], [[0.16, 0.56, 0.28]], [[0.16666666666666666, 0.6666666666666666, 0.16666666666666666]], [[0.0, 1.0, 0.0]], [[0.21428571428571427, 0.5714285714285714, 0.21428571428571427]], [[0.5, 0.0, 0.5]], [[0.0, 0.0, 1.0]], [[1.0, 0.0, 0.0]], [[0.1, 0.8, 0.1]], [[0.0, 1.0, 0.0]], [[0.2, 0.6, 0.2]], [[0.5, 0.0, 0.5]], [[0.0, 0.0, 1.0]], [[1.0, 0.0, 0.0]], [[0.0, 1.0, 0.0]], [[0.14285714285714285, 0.2857142857142857, 0.5714285714285714]], [[0.0, 0.0, 1.0]], [[0.3333333333333333, 0.6666666666666666, 0.0]], [[1.0, 0.0, 0.0]], [[0.0, 1.0, 0.0]]]}, {"children_left": [1, 2, 3, 4, 5, -1, -1, 8, -1, 10, -1, 12, -1, 14, -1, 16, -1, 18, -1, -1, -1, -1, -1], "children_right": [22, 21, 20, 7, 6, -1, -1, 9, -1, 11, -1, 13, -1, 15, -1, 17, -1, 19, -1, -1, -1, -1, -1], "feature": [0, 0, 0, 0, 0, -2, -2, 0, -2, 0, -2, 0, -2, 0, -2, 0, -2, 0, -2, -2, -2, -2, -2], "threshold": [31.5, 30.5, 29.5, 19.5, 18.5, -2.0, -2.0, 20.5, -2.0, 21.5, -2.0, 22.5, -2.0, 23.5, -2.0, 24.5, -2.0, 28.5, -2.0, -2.0, -2.0, -2.0, -2.0], "value": [[[0.35, 0.35, 0.3]], [[0.3888888888888889, 0.2777777777777778, 0.3333333333333333]], [[0.3125, 0.3125, 0.375]], [[0.38461538461538464, 0.38461538461538464, 0.23076923076923078]], [[0.75, 0.0, 0.25]], [[0.0, 0.0, 1.0]], [[1.0, 0.0, 0.0]], [[0.3181818181818182, 0.45454545454545453, 0.22727272727272727]], [[0.0, 1.0, 0.0]], [[0.3888888888888889, 0.3333333333333333, 0.2777777777777778]], [[0.0, 0.0, 1.0]], [[0.4375, 0.375, 0.1875]], [[1.0, 0.0, 0.0]], [[0.3076923076923077, 0.46153846153846156, 0.23076923076923078]], [[0.0, 1.0, 0.0]], [[0.4444444444444444, 0.2222222222222222, 0.3333333333333333]], [[0.0, 0.0, 1.0]], [[0.6666666666666666, 0.3333333333333333, 0.0]], [[1.0, 0.0, 0.0]], [[0.0, 1.0, 0.0]], [[0.0, 0.0, 1.0]], [[1.0, 0.0, 0.0]], [[0.0, 1.0, 0.0]]]}, {"children_left": [1, 2, -1, -1, 5, -1, 7, 8, 9, -1, 11, 12, -1, -1, -1, -1, 17, -1, 19, 20, 21, -1, 23, 24, -1, -1, -1, -1, -1], "children_right": [4, 3, -1, -1, 6, -1, 16, 15, 10, -1, 14, 13, -1, -1, -1, -1, 18, -1, 28, 27, 22, -1, 26, 25, -1, -1, -1, -1, -1], "feature": [0, 0, -2, -2, 0, -2, 0, 0, 0, -2, 0, 0, -2, -2, -2, -2, 0, -2, 0, 0, 0, -2, 0, 0, -2, -2, -2, -2, -2], "threshold": [19.5, 18.5, -2.0, -2.0, 20.5, -2.0, 25.5, 24.5, 21.5, -2.0, 23.5, 22.5, -2.0, -2.0, -2.0, -2.0, 26.5, -2.0, 31.5, 30.5, 27.5, -2.0, 29.5, 28.5, -2.0, -2.0, -2.0, -2.0, -2.0], "value": [[[0.35, 0.35, 0.3]], [[0.875, 0.0, 0.125]], [[0.0, 0.0, 1.0]], [[1.0, 0.0, 0.0]], [[0.21875, 0.4375, 0.34375]], [[0.0, 1.0, 0.0]], [[0.2413793103448276, 0.3793103448275862, 0.3793103448275862]], [[0.36363636363636365, 0.09090909090909091, 0.5454545454545454]], [[0.2222222222222222, 0.1111111111111111, 0.6666666666666666]], [[0.0, 0.0, 1.0]], [[0.3333333333333333, 0.16666666666666666, 0.5]], [[0.6666666666666666, 0.3333333333333333, 0.0]], [[1.0, 0.0, 0.0]], [[0.0, 1.0, 0.0]], [[0.0, 0.0, 1.0]], [[1.0, 0.0, 0.0]], [[0.16666666666666666, 0.5555555555555556, 0.2777777777777778]], [[0.0, 1.0, 0.0]], [[0.25, 0.3333333333333333, 0.4166666666666667]], [[0.3333333333333333, 0.1111111111111111, 0.5555555555555556]], [[0.14285714285714285, 0.14285714285714285, 0.7142857142857143]], [[0.0, 0.0, 1.0]], [[0.25, 0.25, 0.5]], [[0.5, 0.5, 0.0]], [[1.0, 0.0, 0.0]], [[0.0, 1.0, 0.0]], [[0.0, 0.0, 1.0]], [[1.0, 0.0, 0.0]], [[0.0, 1.0, 0.0]]]}, {"children_left": [1, 2, 3, 4, -1, 6, -1, 8, 9, 10, 11, -1, -1, -1, -1, 16, -1, 18, 19, -1, -1, -1, 23, -1, -1, -1, -1], "children_right": [26, 25, 22, 5, -1, 7, -1, 15, 14, 13, 12, -1, -1, -1, -1, 17, -1, 21, 20, -1, -1, -1, 24, -1, -1, -1, -1], "feature": [0, 0, 0, 0, -2, 0, -2, 0, 0, 0, 0, -2, -2, -2, -2, 0, -2, 0, 0, -2, -2, -2, 0, -2, -2, -2, -2], "threshold": [31.5, 30.5, 28.5, 18.5, -2.0, 19.5, -2.0, 24.5, 23.0, 21.5, 20.5, -2.0, -2.0, -2.0, -2.0, 25.5, -2.0, 27.5, 26.5, -2.0, -2.0, -2.0, 29.5, -2.0, -2.0, -2.0, -2.0], "value": [[[0.45, 0.175, 0.375]], [[0.47368421052631576, 0.13157894736842105, 0.39473684210526316]], [[0.42857142857142855, 0.14285714285714285, 0.42857142857142855]], [[0.5357142857142857, 0.07142857142857142, 0.39285714285714285]], [[0.0, 0.0, 1.0]], [[0.5769230769230769, 0.07692307692307693, 0.34615384615384615]], [[1.0, 0.0, 0.0]], [[0.45, 0.1, 0.45]], [[0.25, 0.08333333333333333, 0.6666666666666666]], [[0.5, 0.16666666666666666, 0.3333333333333333]], [[0.0, 0.3333333333333333, 0.6666666666666666]], [[0.0, 1.0, 0.0]], [[0.0, 0.0, 1.0]], [[1.0, 0.0, 0.0]], [[0.0, 0.0, 1.0]], [[0.75, 0.125, 0.125]], [[1.0, 0.0, 0.0]], [[0.6, 0.2, 0.2]], [[0.0, 0.5, 0.5]], [[0.0, 1.0, 0.0]], [[0.0, 0.0, 1.0]], [[1.0, 0.0, 0.0]], [[0.0, 0.42857142857142855, 0.5714285714285714]], [[0.0, 1.0, 0.0]], [[0.0, 0.0, 1.0]], [[1.0, 0.0, 0.0]], [[0.0, 1.0, 0.0]]]}, {"children_left": [1, 2, 3, -1, -1, 6, 7, 8, -1, 10, -1, 12, -1, 14, -1, -1, 17, -1, -1, 20, -1, 22, 23, -1, -1, -1, -1], "children_right": [26, 5, 4, -1, -1, 19, 16, 9, -1, 11, -1, 13, -1, 15, -1, -1, 18, -1, -1, 21, -1, 25, 24, -1, -1, -1, -1], "feature": [0, 0, 0, -2, -2, 0, 0, 0, -2, 0, -2, 0, -2, 0, -2, -2, 0, -2, -2, 0, -2, 0, 0, -2, -2, -2, -2], "threshold": [31.5, 19.5, 18.5, -2.0, -2.0, 27.5, 25.0, 20.5, -2.0, 21.5, -2.0, 22.5, -2.0, 23.5, -2.0, -2.0, 26.5, -2.0, -2.0, 28.5, -2.0, 30.5, 29.5, -2.0, -2.0, -2.0, -2.0], "value": [[[0.35, 0.325, 0.325]], [[0.4117647058823529, 0.20588235294117646, 0.38235294117647056]], [[0.8333333333333334, 0.0, 0.16666666666666666]], [[0.0, 0.0, 1.0]], [[1.0, 0.0, 0.0]], [[0.32142857142857145, 0.25, 0.42857142857142855]], [[0.15789473684210525, 0.3157894736842105, 0.5263157894736842]], [[0.23076923076923078, 0.15384615384615385, 0.6153846153846154]], [[0.0, 1.0, 0.0]], [[0.25, 0.08333333333333333, 0.6666666666666666]], [[0.0, 0.0, 1.0]], [[0.42857142857142855, 0.14285714285714285, 0.42857142857142855]], [[1.0, 0.0, 0.0]], [[0.0, 0.25, 0.75]], [[0.0, 1.0, 0.0]], [[0.0, 0.0, 1.0]], [[0.0, 0.6666666666666666, 0.3333333333333333]], [[0.0, 1.0, 0.0]], [[0.0, 0.0, 1.0]], [[0.6666666666666666, 0.1111111111111111, 0.2222222222222222]], [[1.0, 0.0, 0.0]], [[0.5, 0.16666666666666666, 0.3333333333333333]], [[0.0, 0.3333333333333333, 0.6666666666666666]], [[0.0, 1.0, 0.0]], [[0.0, 0.0, 1.0]], [[1.0, 0.0, 0.0]], [[0.0, 1.0, 0.0]]]}, {"children_left": [1, 2, 3, 4, -1, -1, 7, 8, 9, -1, 11, -1, -1, -1, -1, 16, -1, 18, -1, -1, 21, 22, -1, -1, -1], "children_right": [20, 15, 6, 5, -1, -1, 14, 13, 10, -1, 12, -1, -1, -1, -1, 17, -1, 19, -1, -1, 24, 23, -1, -1, -1], "feature": [0, 0, 0, 0, -2, -2, 0, 0, 0, -2, 0, -2, -2, -2, -2, 0, -2, 0, -2, -2, 0, 0, -2, -2, -2], "threshold": [28.5, 24.5, 19.5, 18.5, -2.0, -2.0, 23.5, 22.5, 20.5, -2.0, 21.5, -2.0, -2.0, -2.0, -2.0, 25.5, -2.0, 27.0, -2.0, -2.0, 31.5, 30.0, -2.0, -2.0, -2.0], "value": [[[0.4, 0.425, 0.175]], [[0.4827586206896552, 0.27586206896551724, 0.2413793103448276]], [[0.2777777777777778, 0.3333333333333333, 0.3888888888888889]], [[0.6666666666666666, 0.0, 0.3333333333333333]], [[0.0, 0.0, 1.0]], [[1.0, 0.0, 0.0]], [[0.08333333333333333, 0.5, 0.4166666666666667]], [[0.1111111111111111, 0.6666666666666666, 0.2222222222222222]], [[0.2, 0.4, 0.4]], [[0.0, 1.0, 0.0]], [[0.3333333333333333, 0.0, 0.6666666666666666]], [[0.0, 0.0, 1.0]], [[1.0, 0.0, 0.0]], [[0.0, 1.0, 0.0]], [[0.0, 0.0, 1.0]], [[0.8181818181818182, 0.18181818181818182, 0.0]], [[1.0, 0.0, 0.0]], [[0.5, 0.5, 0.0]], [[0.0, 1.0, 0.0]], [[1.0, 0.0, 0.0]], [[0.18181818181818182, 0.8181818181818182, 0.0]], [[0.3333333333333333, 0.6666666666666666, 0.0]], [[0.0, 1.0, 0.0]], [[1.0, 0.0, 0.0]], [[0.0, 1.0, 0.0]]]}, {"children_left": [1, 2, -1, -1, 5, 6, 7, 8, -1, 10, -1, -1, -1, 14, -1, 16, -1, -1, 19, 20, 21, -1, 23, -1, -1, -1, -1], "children_right": [4, 3, -1, -1, 18, 13, 12, 9, -1, 11, -1, -1, -1, 15, -1, 17, -1, -1, 26, 25, 22, -1, 24, -1, -1, -1, -1], "feature": [0, 0, -2, -2, 0, 0, 0, 0, -2, 0, -2, -2, -2, 0, -2, 0, -2, -2, 0, 0, 0, -2, 0, -2, -2, -2, -2], "threshold": [19.5, 18.5, -2.0, -2.0, 27.5, 23.5, 22.5, 20.5, -2.0, 21.5, -2.0, -2.0, -2.0, 25.0, -2.0, 26.5, -2.0, -2.0, 31.5, 30.5, 28.5, -2.0, 29.5, -2.0, -2.0, -2.0, -2.0], "value": [[[0.35, 0.375, 0.275]], [[0.7142857142857143, 0.0, 0.2857142857142857]], [[0.0, 0.0, 1.0]], [[1.0, 0.0, 0.0]], [[0.2727272727272727, 0.45454545454545453, 0.2727272727272727]], [[0.09090909090909091, 0.5454545454545454, 0.36363636363636365]], [[0.18181818181818182, 0.7272727272727273, 0.09090909090909091]], [[0.4, 0.4, 0.2]], [[0.0, 1.0, 0.0]], [[0.6666666666666666, 0.0, 0.3333333333333333]], [[0.0, 0.0, 1.0]], [[1.0, 0.0, 0.0]], [[0.0, 1.0, 0.0]], [[0.0, 0.36363636363636365, 0.6363636363636364]], [[0.0, 0.0, 1.0]], [[0.0, 0.6666666666666666, 0.3333333333333333]], [[0.0, 1.0, 0.0]], [[0.0, 0.0, 1.0]], [[0.6363636363636364, 0.2727272727272727, 0.09090909090909091]], [[0.7777777777777778, 0.1111111111111111, 0.1111111111111111]], [[0.5, 0.25, 0.25]], [[1.0, 0.0, 0.0]], [[0.0, 0.5, 0.5]], [[0.0, 1.0, 0.0]], [[0.0, 0.0, 1.0]], [[1.0, 0.0, 0.0]], [[0.0, 1.0, 0.0]]]}, {"children_left": [1, 2, -1, -1, 5, 6, -1, -1, 9, 10, 11, 12, -1, 14, -1, 16, -1, 18, -1, -1, -1, -1, 23, -1, 25, -1, 27, -1, -1], "children_right": [4, 3, -1, -1, 8, 7, -1, -1, 22, 21, 20, 13, -1, 15, -1, 17, -1, 19, -1, -1, -1, -1, 24, -1, 26, -1, 28, -1, -1], "feature": [0, 0, -2, -2, 0, 0, -2, -2, 0, 0, 0, 0, -2, 0, -2, 0, -2, 0, -2, -2, -2, -2, 0, -2, 0, -2, 0, -2, -2], "threshold": [19.5, 18.5, -2.0, -2.0, 21.5, 20.5, -2.0, -2.0, 28.5, 27.5, 26.5, 22.5, -2.0, 23.5, -2.0, 24.5, -2.0, 25.5, -2.0, -2.0, -2.0, -2.0, 29.5, -2.0, 30.5, -2.0, 31.5, -2.0, -2.0], "value": [[[0.4, 0.3, 0.3]], [[0.75, 0.0, 0.25]], [[0.0, 0.0, 1.0]], [[1.0, 0.0, 0.0]], [[0.3125, 0.375, 0.3125]], [[0.0, 0.3333333333333333, 0.6666666666666666]], [[0.0, 1.0, 0.0]], [[0.0, 0.0, 1.0]], [[0.38461538461538464, 0.38461538461538464, 0.23076923076923078]], [[0.5, 0.2777777777777778, 0.2222222222222222]], [[0.35714285714285715, 0.35714285714285715, 0.2857142857142857]], [[0.4166666666666667, 0.4166666666666667, 0.16666666666666666]], [[1.0, 0.0, 0.0]], [[0.3, 0.5, 0.2]], [[0.0, 1.0, 0.0]], [[0.42857142857142855, 0.2857142857142857, 0.2857142857142857]], [[0.0, 0.0, 1.0]], [[0.6, 0.4, 0.0]], [[1.0, 0.0, 0.0]], [[0.0, 1.0, 0.0]], [[0.0, 0.0, 1.0]], [[1.0, 0.0, 0.0]], [[0.125, 0.625, 0.25]], [[0.0, 1.0, 0.0]], [[0.25, 0.25, 0.5]], [[0.0, 0.0, 1.0]], [[0.5, 0.5, 0.0]], [[1.0, 0.0, 0.0]], [[0.0, 1.0, 0.0]]]}, {"children_left": [1, 2, 3, 4, 5, 6, -1, 8, -1, -1, -1, 12, -1, -1, -1, -1, 17, -1, 19, 20, 21, -1, -1, -1, 25, -1, 27, -1, -1], "children_right": [16, 15, 14, 11, 10, 7, -1, 9, -1, -1, -1, 13, -1, -1, -1, -1, 18, -1, 24, 23, 22, -1, -1, -1, 26, -1, 28, -1, -1], "feature": [0, 0, 0, 0, 0, 0, -2, 0, -2, -2, -2, 0, -2, -2, -2, -2, 0, -2, 0, 0, 0, -2, -2, -2, 0, -2, 0, -2, -2], "threshold": [25.5, 24.5, 23.5, 21.5, 20.5, 18.5, -2.0, 19.5, -2.0, -2.0, -2.0, 22.5, -2.0, -2.0, -2.0, -2.0, 26.5, -2.0, 29.5, 28.5, 27.5, -2.0, -2.0, -2.0, 30.5, -2.0, 31.5, -2.0, -2.0], "value": [[[0.375, 0.275, 0.35]], [[0.5217391304347826, 0.13043478260869565, 0.34782608695652173]], [[0.3888888888888889, 0.16666666666666666, 0.4444444444444444]], [[0.4666666666666667, 0.2, 0.3333333333333333]], [[0.25, 0.125, 0.625]], [[0.5, 0.25, 0.25]], [[0.0, 0.0, 1.0]], [[0.6666666666666666, 0.3333333333333333, 0.0]], [[1.0, 0.0, 0.0]], [[0.0, 1.0, 0.0]], [[0.0, 0.0, 1.0]], [[0.7142857142857143, 0.2857142857142857, 0.0]], [[1.0, 0.0, 0.0]], [[0.0, 1.0, 0.0]], [[0.0, 0.0, 1.0]], [[1.0, 0.0, 0.0]], [[0.17647058823529413, 0.47058823529411764, 0.35294117647058826]], [[0.0, 1.0, 0.0]], [[0.25, 0.25, 0.5]], [[0.4, 0.4, 0.2]], [[0.6666666666666666, 0.0, 0.3333333333333333]], [[0.0, 0.0, 1.0]], [[1.0, 0.0, 0.0]], [[0.0, 1.0, 0.0]], [[0.14285714285714285, 0.14285714285714285, 0.7142857142857143]], [[0.0, 0.0, 1.0]], [[0.5, 0.5, 0.0]], [[1.0, 0.0, 0.0]], [[0.0, 1.0, 0.0]]]}, {"children_left": [1, -1, 3, -1, 5, -1, 7, -1, 9, -1, 11, 12, -1, -1, 15, -1, 17, 18, 19, -1, 21, -1, -1, -1, -1], "children_right": [2, -1, 4, -1, 6, -1, 8, -1, 10, -1, 14, 13, -1, -1, 16, -1, 24, 23, 20, -1, 22, -1, -1, -1, -1], "feature": [0, -2, 0, -2, 0, -2, 0, -2, 0, -2, 0, 0, -2, -2, 0, -2, 0, 0, 0, -2, 0, -2, -2, -2, -2], "threshold": [19.5, -2.0, 20.5, -2.0, 21.5, -2.0, 22.5, -2.0, 23.5, -2.0, 25.5, 24.5, -2.0, -2.0, 26.5, -2.0, 31.0, 29.5, 27.5, -2.0, 28.5, -2.0, -2.0, -2.0, -2.0], "value": [[[0.325, 0.425, 0.25]], [[1.0, 0.0, 0.0]], [[0.2702702702702703, 0.4594594594594595, 0.2702702702702703]], [[0.0, 1.0, 0.0]], [[0.29411764705882354, 0.4117647058823529, 0.29411764705882354]], [[0.0, 0.0, 1.0]], [[0.3333333333333333, 0.4666666666666667, 0.2]], [[1.0, 0.0, 0.0]], [[0.23076923076923078, 0.5384615384615384, 0.23076923076923078]], [[0.0, 1.0, 0.0]], [[0.2727272727272727, 0.45454545454545453, 0.2727272727272727]], [[0.6666666666666666, 0.0, 0.3333333333333333]], [[0.0, 0.0, 1.0]], [[1.0, 0.0, 0.0]], [[0.125, 0.625, 0.25]], [[0.0, 1.0, 0.0]], [[0.2, 0.4, 0.4]], [[0.2857142857142857, 0.14285714285714285, 0.5714285714285714]], [[0.5, 0.25, 0.25]], [[0.0, 0.0, 1.0]], [[0.6666666666666666, 0.3333333333333333, 0.0]], [[1.0, 0.0, 0.0]], [[0.0, 1.0, 0.0]], [[0.0, 0.0, 1.0]], [[0.0, 1.0, 0.0]]]}, {"children_left": [1, 2, -1, 4, -1, 6, -1, 8, -1, 10, 11, -1, 13, -1, 15, -1, 17, 18, 19, -1, 21, -1, -1, -1, -1, 26, -1, -1, -1], "children_right": [28, 3, -1, 5, -1, 7, -1, 9, -1, 25, 12, -1, 14, -1, 16, -1, 24, 23, 20, -1, 22, -1, -1, -1, -1, 27, -1, -1, -1], "feature": [0, 0, -2, 0, -2, 0, -2, 0, -2, 0, 0, -2, 0, -2, 0, -2, 0, 0, 0, -2, 0, -2, -2, -2, -2, 0, -2, -2, -2], "threshold": [31.5, 18.5, -2.0, 19.5, -2.0, 20.5, -2.0, 21.5, -2.0, 29.5, 22.5, -2.0, 23.5, -2.0, 24.5, -2.0, 28.5, 27.5, 25.5, -2.0, 26.5, -2.0, -2.0, -2.0, -2.0, 30.5, -2.0, -2.0, -2.0], "value": [[[0.25, 0.35, 0.4]], [[0.2777777777777778, 0.2777777777777778, 0.4444444444444444]], [[0.0, 0.0, 1.0]], [[0.30303030303030304, 0.30303030303030304, 0.3939393939393939]], [[1.0, 0.0, 0.0]], [[0.23333333333333334, 0.3333333333333333, 0.43333333333333335]], [[0.0, 1.0, 0.0]], [[0.2692307692307692, 0.23076923076923078, 0.5]], [[0.0, 0.0, 1.0]], [[0.3684210526315789, 0.3157894736842105, 0.3157894736842105]], [[0.4, 0.4, 0.2]], [[1.0, 0.0, 0.0]], [[0.3076923076923077, 0.46153846153846156, 0.23076923076923078]], [[0.0, 1.0, 0.0]], [[0.4, 0.3, 0.3]], [[0.0, 0.0, 1.0]], [[0.5, 0.375, 0.125]], [[0.6666666666666666, 0.16666666666666666, 0.16666666666666666]], [[0.3333333333333333, 0.3333333333333333, 0.3333333333333333]], [[1.0, 0.0, 0.0]], [[0.0, 0.5, 0.5]], [[0.0, 1.0, 0.0]], [[0.0, 0.0, 1.0]], [[1.0, 0.0, 0.0]], [[0.0, 1.0, 0.0]], [[0.25, 0.0, 0.75]], [[0.0, 0.0, 1.0]], [[1.0, 0.0, 0.0]], [[0.0, 1.0, 0.0]]]}, {"children_left": [1, 2, 3, 4, -1, -1, -1, -1, 9, -1, 11, -1, 13, -1, 15, -1, 17, -1, 19, 20, 21, -1, 23, -1, -1, -1, -1], "children_right": [8, 7, 6, 5, -1, -1, -1, -1, 10, -1, 12, -1, 14, -1, 16, -1, 18, -1, 26, 25, 22, -1, 24, -1, -1, -1, -1], "feature": [0, 0, 0, 0, -2, -2, -2, -2, 0, -2, 0, -2, 0, -2, 0, -2, 0, -2, 0, 0, 0, -2, 0, -2, -2, -2, -2], "threshold": [22.5, 21.5, 20.0, 18.5, -2.0, -2.0, -2.0, -2.0, 23.5, -2.0, 24.5, -2.0, 25.5, -2.0, 26.5, -2.0, 27.5, -2.0, 31.5, 30.5, 28.5, -2.0, 29.5, -2.0, -2.0, -2.0, -2.0], "value": [[[0.375, 0.4, 0.225]], [[0.6, 0.0, 0.4]], [[0.3333333333333333, 0.0, 0.6666666666666666]], [[0.6666666666666666, 0.0, 0.3333333333333333]], [[0.0, 0.0, 1.0]], [[1.0, 0.0, 0.0]], [[0.0, 0.0, 1.0]], [[1.0, 0.0, 0.0]], [[0.3, 0.5333333333333333, 0.16666666666666666]], [[0.0, 1.0, 0.0]], [[0.36, 0.44, 0.2]], [[0.0, 0.0, 1.0]], [[0.391304347826087, 0.4782608695652174, 0.13043478260869565]], [[1.0, 0.0, 0.0]], [[0.3, 0.55, 0.15]], [[0.0, 1.0, 0.0]], [[0.42857142857142855, 0.35714285714285715, 0.21428571428571427]], [[0.0, 0.0, 1.0]], [[0.5, 0.4166666666666667, 0.08333333333333333]], [[0.6, 0.3, 0.1]], [[0.3333333333333333, 0.5, 0.16666666666666666]], [[1.0, 0.0, 0.0]], [[0.0, 0.75, 0.25]], [[0.0, 1.0, 0.0]], [[0.0, 0.0, 1.0]], [[1.0, 0.0, 0.0]], [[0.0, 1.0, 0.0]]]}, {"children_left": [1, -1, 3, -1, 5, 6, 7, -1, 9, -1, 11, -1, 13, -1, -1, 16, -1, 18, 19, 20, -1, 22, -1, -1, -1, -1, -1], "children_right": [2, -1, 4, -1, 26, 15, 8, -1, 10, -1, 12, -1, 14, -1, -1, 17, -1, 25, 24, 21, -1, 23, -1, -1, -1, -1, -1], "feature": [0, -2, 0, -2, 0, 0, 0, -2, 0, -2, 0, -2, 0, -2, -2, 0, -2, 0, 0, 0, -2, 0, -2, -2, -2, -2, -2], "threshold": [19.5, -2.0, 20.5, -2.0, 31.5, 25.5, 21.5, -2.0, 22.5, -2.0, 23.5, -2.0, 24.5, -2.0, -2.0, 26.5, -2.0, 30.5, 29.5, 27.5, -2.0, 28.5, -2.0, -2.0, -2.0, -2.0, -2.0], "value": [[[0.275, 0.375, 0.35]], [[1.0, 0.0, 0.0]], [[0.17142857142857143, 0.42857142857142855, 0.4]], [[0.0, 1.0, 0.0]], [[0.1935483870967742, 0.3548387096774194, 0.45161290322580644]], [[0.2222222222222222, 0.25925925925925924, 0.5185185185185185]], [[0.3076923076923077, 0.07692307692307693, 0.6153846153846154]], [[0.0, 0.0, 1.0]], [[0.4, 0.1, 0.5]], [[1.0, 0.0, 0.0]], [[0.14285714285714285, 0.14285714285714285, 0.7142857142857143]], [[0.0, 1.0, 0.0]], [[0.16666666666666666, 0.0, 0.8333333333333334]], [[0.0, 0.0, 1.0]], [[1.0, 0.0, 0.0]], [[0.14285714285714285, 0.42857142857142855, 0.42857142857142855]], [[0.0, 1.0, 0.0]], [[0.2222222222222222, 0.1111111111111111, 0.6666666666666666]], [[0.125, 0.125, 0.75]], [[0.25, 0.25, 0.5]], [[0.0, 0.0, 1.0]], [[0.5, 0.5, 0.0]], [[1.0, 0.0, 0.0]], [[0.0, 1.0, 0.0]], [[0.0, 0.0, 1.0]], [[1.0, 0.0, 0.0]], [[0.0, 1.0, 0.0]]]}, {"children_left": [1, 2, 3, -1, -1, 6, -1, 8, 9, 10, -1, 12, 13, -1, -1, -1, 17, -1, -1, -1, -1], "children_right": [20, 5, 4, -1, -1, 7, -1, 19, 16, 11, -1, 15, 14, -1, -1, -1, 18, -1, -1, -1, -1], "feature": [0, 0, 0, -2, -2, 0, -2, 0, 0, 0, -2, 0, 0, -2, -2, -2, 0, -2, -2, -2, -2], "threshold": [31.0, 22.5, 18.5, -2.0, -2.0, 23.5, -2.0, 29.5, 27.5, 24.5, -2.0, 26.5, 25.5, -2.0, -2.0, -2.0, 28.5, -2.0, -2.0, -2.0, -2.0], "value": [[[0.375, 0.275, 0.35]], [[0.4411764705882353, 0.14705882352941177, 0.4117647058823529]], [[0.8333333333333334, 0.0, 0.16666666666666666]], [[0.0, 0.0, 1.0]], [[1.0, 0.0, 0.0]], [[0.22727272727272727, 0.22727272727272727, 0.5454545454545454]], [[0.0, 1.0, 0.0]], [[0.2631578947368421, 0.10526315789473684, 0.631578947368421]], [[0.38461538461538464, 0.15384615384615385, 0.46153846153846156]], [[0.125, 0.125, 0.75]], [[0.0, 0.0, 1.0]], [[0.25, 0.25, 0.5]], [[0.5, 0.5, 0.0]], [[1.0, 0.0, 0.0]], [[0.0, 1.0, 0.0]], [[0.0, 0.0, 1.0]], [[0.8, 0.2, 0.0]], [[1.0, 0.0, 0.0]], [[0.0, 1.0, 0.0]], [[0.0, 0.0, 1.0]], [[0.0, 1.0, 0.0]]]}, {"children_left": [1, 2, 3, -1, -1, -1, 7, 8, 9, 10, -1, -1, -1, -1, 15, 16, -1, 18, -1, -1, 21, -1, 23, -1, -1], "children_right": [6, 5, 4, -1, -1, -1, 14, 13, 12, 11, -1, -1, -1, -1, 20, 17, -1, 19, -1, -1, 22, -1, 24, -1, -1], "feature": [0, 0, 0, -2, -2, -2, 0, 0, 0, 0, -2, -2, -2, -2, 0, 0, -2, 0, -2, -2, 0, -2, 0, -2, -2], "threshold": [21.5, 20.0, 18.5, -2.0, -2.0, -2.0, 25.5, 24.5, 23.5, 22.5, -2.0, -2.0, -2.0, -2.0, 29.5, 27.0, -2.0, 28.5, -2.0, -2.0, 30.5, -2.0, 31.5, -2.0, -2.0], "value": [[[0.35, 0.3, 0.35]], [[0.16666666666666666, 0.0, 0.8333333333333334]], [[0.3333333333333333, 0.0, 0.6666666666666666]], [[0.0, 0.0, 1.0]], [[1.0, 0.0, 0.0]], [[0.0, 0.0, 1.0]], [[0.38235294117647056, 0.35294117647058826, 0.2647058823529412]], [[0.5714285714285714, 0.14285714285714285, 0.2857142857142857]], [[0.3333333333333333, 0.2222222222222222, 0.4444444444444444]], [[0.6, 0.4, 0.0]], [[1.0, 0.0, 0.0]], [[0.0, 1.0, 0.0]], [[0.0, 0.0, 1.0]], [[1.0, 0.0, 0.0]], [[0.25, 0.5, 0.25]], [[0.1111111111111111, 0.8888888888888888, 0.0]], [[0.0, 1.0, 0.0]], [[0.25, 0.75, 0.0]], [[1.0, 0.0, 0.0]], [[0.0, 1.0, 0.0]], [[0.36363636363636365, 0.18181818181818182, 0.45454545454545453]], [[0.0, 0.0, 1.0]], [[0.6666666666666666, 0.3333333333333333, 0.0]], [[1.0, 0.0, 0.0]], [[0.0, 1.0, 0.0]]]}, {"children_left": [1, 2, -1, 4, 5, -1, 7, 8, -1, 10, -1, -1, 13, -1, 15, -1, -1, 18, -1, -1, -1], "children_right": [20, 3, -1, 17, 6, -1, 12, 9, -1, 11, -1, -1, 14, -1, 16, -1, -1, 19, -1, -1, -1], "feature": [0, 0, -2, 0, 0, -2, 0, 0, -2, 0, -2, -2, 0, -2, 0, -2, -2, 0, -2, -2, -2], "threshold": [31.5, 21.5, -2.0, 29.5, 22.5, -2.0, 26.5, 24.0, -2.0, 25.5, -2.0, -2.0, 27.5, -2.0, 28.5, -2.0, -2.0, 30.5, -2.0, -2.0, -2.0], "value": [[[0.2, 0.425, 0.375]], [[0.25806451612903225, 0.25806451612903225, 0.4838709677419355]], [[0.0, 0.0, 1.0]], [[0.32, 0.32, 0.36]], [[0.4117647058823529, 0.47058823529411764, 0.11764705882352941]], [[1.0, 0.0, 0.0]], [[0.2857142857142857, 0.5714285714285714, 0.14285714285714285]], [[0.14285714285714285, 0.8571428571428571, 0.0]], [[0.0, 1.0, 0.0]], [[0.3333333333333333, 0.6666666666666666, 0.0]], [[1.0, 0.0, 0.0]], [[0.0, 1.0, 0.0]], [[0.42857142857142855, 0.2857142857142857, 0.2857142857142857]], [[0.0, 0.0, 1.0]], [[0.6, 0.4, 0.0]], [[1.0, 0.0, 0.0]], [[0.0, 1.0, 0.0]], [[0.125, 0.0, 0.875]], [[0.0, 0.0, 1.0]], [[1.0, 0.0, 0.0]], [[0.0, 1.0, 0.0]]]}, {"children_left": [1, 2, 3, 4, 5, 6, 7, 8, -1, 10, -1, -1, -1, -1, -1, -1, -1, 18, 19, 20, -1, 22, -1, 24, -1, -1, -1, -1, -1], "children_right": [28, 17, 16, 15, 14, 13, 12, 9, -1, 11, -1, -1, -1, -1, -1, -1, -1, 27, 26, 21, -1, 23, -1, 25, -1, -1, -1, -1, -1], "feature": [0, 0, 0, 0, 0, 0, 0, 0, -2, 0, -2, -2, -2, -2, -2, -2, -2, 0, 0, 0, -2, 0, -2, 0, -2, -2, -2, -2, -2], "threshold": [31.5, 25.5, 24.5, 23.5, 22.5, 21.5, 20.5, 18.5, -2.0, 19.5, -2.0, -2.0, -2.0, -2.0, -2.0, -2.0, -2.0, 30.5, 29.5, 26.5, -2.0, 27.5, -2.0, 28.5, -2.0, -2.0, -2.0, -2.0, -2.0], "value": [[[0.425, 0.25, 0.325]], [[0.4722222222222222, 0.16666666666666666, 0.3611111111111111]], [[0.5833333333333334, 0.08333333333333333, 0.3333333333333333]], [[0.4117647058823529, 0.11764705882352941, 0.47058823529411764]], [[0.5, 0.14285714285714285, 0.35714285714285715]], [[0.5384615384615384, 0.07692307692307693, 0.38461538461538464]], [[0.4, 0.1, 0.5]], [[0.6666666666666666, 0.16666666666666666, 0.16666666666666666]], [[0.0, 0.0, 1.0]], [[0.8, 0.2, 0.0]], [[1.0, 0.0, 0.0]], [[0.0, 1.0, 0.0]], [[0.0, 0.0, 1.0]], [[1.0, 0.0, 0.0]], [[0.0, 1.0, 0.0]], [[0.0, 0.0, 1.0]], [[1.0, 0.0, 0.0]], [[0.25, 0.3333333333333333, 0.4166666666666667]], [[0.1, 0.4, 0.5]], [[0.14285714285714285, 0.5714285714285714, 0.2857142857142857]], [[0.0, 1.0, 0.0]], [[0.2, 0.4, 0.4]], [[0.0, 0.0, 1.0]], [[0.3333333333333333, 0.6666666666666666, 0.0]], [[1.0, 0.0, 0.0]], [[0.0, 1.0, 0.0]], [[0.0, 0.0, 1.0]], [[1.0, 0.0, 0.0]], [[0.0, 1.0, 0.0]]]}, {"children_left": [1, 2, 3, 4, -1, 6, -1, 8, 9, -1, -1, -1, -1, 14, -1, 16, 17, -1, -1, -1, 21, -1, 23, -1, 25, -1, 27, -1, -1], "children_right": [20, 13, 12, 5, -1, 7, -1, 11, 10, -1, -1, -1, -1, 15, -1, 19, 18, -1, -1, -1, 22, -1, 24, -1, 26, -1, 28, -1, -1], "feature": [0, 0, 0, 0, -2, 0, -2, 0, 0, -2, -2, -2, -2, 0, -2, 0, 0, -2, -2, -2, 0, -2, 0, -2, 0, -2, 0, -2, -2], "threshold": [27.5, 23.5, 22.5, 18.5, -2.0, 19.5, -2.0, 21.5, 20.5, -2.0, -2.0, -2.0, -2.0, 24.5, -2.0, 26.5, 25.5, -2.0, -2.0, -2.0, 28.5, -2.0, 29.5, -2.0, 30.5, -2.0, 31.5, -2.0, -2.0], "value": [[[0.375, 0.2, 0.425]], [[0.2962962962962963, 0.18518518518518517, 0.5185185185185185]], [[0.46153846153846156, 0.23076923076923078, 0.3076923076923077]], [[0.5454545454545454, 0.09090909090909091, 0.36363636363636365]], [[0.0, 0.0, 1.0]], [[0.6666666666666666, 0.1111111111111111, 0.2222222222222222]], [[1.0, 0.0, 0.0]], [[0.5, 0.16666666666666666, 0.3333333333333333]], [[0.0, 0.3333333333333333, 0.6666666666666666]], [[0.0, 1.0, 0.0]], [[0.0, 0.0, 1.0]], [[1.0, 0.0, 0.0]], [[0.0, 1.0, 0.0]], [[0.14285714285714285, 0.14285714285714285, 0.7142857142857143]], [[0.0, 0.0, 1.0]], [[0.25, 0.25, 0.5]], [[0.5, 0.5, 0.0]], [[1.0, 0.0, 0.0]], [[0.0, 1.0, 0.0]], [[0.0, 0.0, 1.0]], [[0.5384615384615384, 0.23076923076923078, 0.23076923076923078]], [[1.0, 0.0, 0.0]], [[0.25, 0.375, 0.375]], [[0.0, 1.0, 0.0]], [[0.3333333333333333, 0.16666666666666666, 0.5]], [[0.0, 0.0, 1.0]], [[0.6666666666666666, 0.3333333333333333, 0.0]], [[1.0, 0.0, 0.0]], [[0.0, 1.0, 0.0]]]}, {"children_left": [1, 2, 3, 4, -1, 6, -1, 8, -1, -1, 11, -1, -1, 14, -1, 16, -1, -1, 19, -1, 21, -1, 23, -1, -1], "children_right": [18, 13, 10, 5, -1, 7, -1, 9, -1, -1, 12, -1, -1, 15, -1, 17, -1, -1, 20, -1, 22, -1, 24, -1, -1], "feature": [0, 0, 0, 0, -2, 0, -2, 0, -2, -2, 0, -2, -2, 0, -2, 0, -2, -2, 0, -2, 0, -2, 0, -2, -2], "threshold": [28.5, 24.5, 22.5, 18.5, -2.0, 20.0, -2.0, 21.5, -2.0, -2.0, 23.5, -2.0, -2.0, 25.5, -2.0, 27.0, -2.0, -2.0, 29.5, -2.0, 30.5, -2.0, 31.5, -2.0, -2.0], "value": [[[0.4, 0.3, 0.3]], [[0.5357142857142857, 0.21428571428571427, 0.25]], [[0.35714285714285715, 0.14285714285714285, 0.5]], [[0.5, 0.0, 0.5]], [[0.0, 0.0, 1.0]], [[0.625, 0.0, 0.375]], [[1.0, 0.0, 0.0]], [[0.4, 0.0, 0.6]], [[0.0, 0.0, 1.0]], [[1.0, 0.0, 0.0]], [[0.0, 0.5, 0.5]], [[0.0, 1.0, 0.0]], [[0.0, 0.0, 1.0]], [[0.7142857142857143, 0.2857142857142857, 0.0]], [[1.0, 0.0, 0.0]], [[0.5555555555555556, 0.4444444444444444, 0.0]], [[0.0, 1.0, 0.0]], [[1.0, 0.0, 0.0]], [[0.08333333333333333, 0.5, 0.4166666666666667]], [[0.0, 1.0, 0.0]], [[0.14285714285714285, 0.14285714285714285, 0.7142857142857143]], [[0.0, 0.0, 1.0]], [[0.5, 0.5, 0.0]], [[1.0, 0.0, 0.0]], [[0.0, 1.0, 0.0]]]}, {"children_left": [1, 2, -1, 4, -1, 6, -1, -1, 9, 10, 11, 12, -1, 14, -1, -1, -1, 18, 19, -1, -1, -1, 23, -1, -1], "children_right": [8, 3, -1, 5, -1, 7, -1, -1, 22, 17, 16, 13, -1, 15, -1, -1, -1, 21, 20, -1, -1, -1, 24, -1, -1], "feature": [0, 0, -2, 0, -2, 0, -2, -2, 0, 0, 0, 0, -2, 0, -2, -2, -2, 0, 0, -2, -2, -2, 0, -2, -2], "threshold": [22.5, 18.5, -2.0, 20.0, -2.0, 21.5, -2.0, -2.0, 30.5, 26.5, 25.5, 23.5, -2.0, 24.5, -2.0, -2.0, -2.0, 29.5, 28.0, -2.0, -2.0, -2.0, 31.5, -2.0, -2.0], "value": [[[0.3, 0.325, 0.375]], [[0.6666666666666666, 0.0, 0.3333333333333333]], [[0.0, 0.0, 1.0]], [[0.8571428571428571, 0.0, 0.14285714285714285]], [[1.0, 0.0, 0.0]], [[0.75, 0.0, 0.25]], [[0.0, 0.0, 1.0]], [[1.0, 0.0, 0.0]], [[0.1935483870967742, 0.41935483870967744, 0.3870967741935484]], [[0.08333333333333333, 0.4166666666666667, 0.5]], [[0.2, 0.7, 0.1]], [[0.4, 0.4, 0.2]], [[0.0, 1.0, 0.0]], [[0.6666666666666666, 0.0, 0.3333333333333333]], [[0.0, 0.0, 1.0]], [[1.0, 0.0, 0.0]], [[0.0, 1.0, 0.0]], [[0.0, 0.21428571428571427, 0.7857142857142857]], [[0.0, 0.375, 0.625]], [[0.0, 0.0, 1.0]], [[0.0, 1.0, 0.0]], [[0.0, 0.0, 1.0]], [[0.5714285714285714, 0.42857142857142855, 0.0]], [[1.0, 0.0, 0.0]], [[0.0, 1.0, 0.0]]]}, {"children_left": [1, -1, 3, 4, 5, 6, 7, 8, -1, -1, -1, -1, 13, -1, 15, -1, 17, -1, 19, -1, 21, 22, -1, -1, 25, -1, -1, -1, -1], "children_right": [2, -1, 28, 27, 12, 11, 10, 9, -1, -1, -1, -1, 14, -1, 16, -1, 18, -1, 20, -1, 24, 23, -1, -1, 26, -1, -1, -1, -1], "feature": [0, -2, 0, 0, 0, 0, 0, 0, -2, -2, -2, -2, 0, -2, 0, -2, 0, -2, 0, -2, 0, 0, -2, -2, 0, -2, -2, -2, -2], "threshold": [18.5, -2.0, 31.5, 30.5, 22.5, 21.5, 20.5, 19.5, -2.0, -2.0, -2.0, -2.0, 23.5, -2.0, 24.5, -2.0, 25.5, -2.0, 26.5, -2.0, 28.5, 27.5, -2.0, -2.0, 29.5, -2.0, -2.0, -2.0, -2.0], "value": [[[0.325, 0.4, 0.275]], [[0.0, 0.0, 1.0]], [[0.35135135135135137, 0.43243243243243246, 0.21621621621621623]], [[0.3939393939393939, 0.36363636363636365, 0.24242424242424243]], [[0.3333333333333333, 0.4, 0.26666666666666666]], [[0.5714285714285714, 0.14285714285714285, 0.2857142857142857]], [[0.25, 0.25, 0.5]], [[0.5, 0.5, 0.0]], [[1.0, 0.0, 0.0]], [[0.0, 1.0, 0.0]], [[0.0, 0.0, 1.0]], [[1.0, 0.0, 0.0]], [[0.2608695652173913, 0.4782608695652174, 0.2608695652173913]], [[0.0, 1.0, 0.0]], [[0.3157894736842105, 0.3684210526315789, 0.3157894736842105]], [[0.0, 0.0, 1.0]], [[0.4, 0.4666666666666667, 0.13333333333333333]], [[1.0, 0.0, 0.0]], [[0.25, 0.5833333333333334, 0.16666666666666666]], [[0.0, 1.0, 0.0]], [[0.42857142857142855, 0.2857142857142857, 0.2857142857142857]], [[0.75, 0.0, 0.25]], [[0.0, 0.0, 1.0]], [[1.0, 0.0, 0.0]], [[0.0, 0.6666666666666666, 0.3333333333333333]], [[0.0, 1.0, 0.0]], [[0.0, 0.0, 1.0]], [[1.0, 0.0, 0.0]], [[0.0, 1.0, 0.0]]]}, {"children_left": [1, 2, 3, -1, 5, -1, -1, -1, 9, -1, 11, 12, 13, -1, 15, -1, -1, -1, 19, -1, 21, -1, 23, -1, 25, -1, -1], "children_right": [8, 7, 4, -1, 6, -1, -1, -1, 10, -1, 18, 17, 14, -1, 16, -1, -1, -1, 20, -1, 22, -1, 24, -1, 26, -1, -1], "feature": [0, 0, 0, -2, 0, -2, -2, -2, 0, -2, 0, 0, 0, -2, 0, -2, -2, -2, 0, -2, 0, -2, 0, -2, 0, -2, -2], "threshold": [21.5, 20.5, 18.5, -2.0, 19.5, -2.0, -2.0, -2.0, 22.5, -2.0, 26.5, 25.5, 23.5, -2.0, 24.5, -2.0, -2.0, -2.0, 27.5, -2.0, 28.5, -2.0, 29.5, -2.0, 30.5, -2.0, -2.0], "value": [[[0.275, 0.3, 0.425]], [[0.09090909090909091, 0.18181818181818182, 0.7272727272727273]], [[0.2, 0.4, 0.4]], [[0.0, 0.0, 1.0]], [[0.3333333333333333, 0.6666666666666666, 0.0]], [[1.0, 0.0, 0.0]], [[0.0, 1.0, 0.0]], [[0.0, 0.0, 1.0]], [[0.3448275862068966, 0.3448275862068966, 0.3103448275862069]], [[1.0, 0.0, 0.0]], [[0.24, 0.4, 0.36]], [[0.16666666666666666, 0.6666666666666666, 0.16666666666666666]], [[0.2857142857142857, 0.42857142857142855, 0.2857142857142857]], [[0.0, 1.0, 0.0]], [[0.5, 0.0, 0.5]], [[0.0, 0.0, 1.0]], [[1.0, 0.0, 0.0]], [[0.0, 1.0, 0.0]], [[0.3076923076923077, 0.15384615384615385, 0.5384615384615384]], [[0.0, 0.0, 1.0]], [[0.5, 0.25, 0.25]], [[1.0, 0.0, 0.0]], [[0.3333333333333333, 0.3333333333333333, 0.3333333333333333]], [[0.0, 1.0, 0.0]], [[0.5, 0.0, 0.5]], [[0.0, 0.0, 1.0]], [[1.0, 0.0, 0.0]]]}, {"children_left": [1, 2, 3, 4, 5, 6, -1, 8, -1, -1, -1, -1, 13, 14, -1, 16, 17, -1, -1, 20, -1, -1, 23, -1, -1, 26, -1, -1, -1], "children_right": [28, 25, 12, 11, 10, 7, -1, 9, -1, -1, -1, -1, 22, 15, -1, 19, 18, -1, -1, 21, -1, -1, 24, -1, -1, 27, -1, -1, -1], "feature": [0, 0, 0, 0, 0, 0, -2, 0, -2, -2, -2, -2, 0, 0, -2, 0, 0, -2, -2, 0, -2, -2, 0, -2, -2, 0, -2, -2, -2], "threshold": [31.5, 29.5, 22.5, 21.5, 20.5, 18.5, -2.0, 19.5, -2.0, -2.0, -2.0, -2.0, 27.5, 23.5, -2.0, 25.5, 24.5, -2.0, -2.0, 26.5, -2.0, -2.0, 28.5, -2.0, -2.0, 30.5, -2.0, -2.0, -2.0], "value": [[[0.375, 0.375, 0.25]], [[0.42857142857142855, 0.2857142857142857, 0.2857142857142857]], [[0.4482758620689655, 0.3448275862068966, 0.20689655172413793]], [[0.6363636363636364, 0.09090909090909091, 0.2727272727272727]], [[0.3333333333333333, 0.16666666666666666, 0.5]], [[0.5, 0.25, 0.25]], [[0.0, 0.0, 1.0]], [[0.6666666666666666, 0.3333333333333333, 0.0]], [[1.0, 0.0, 0.0]], [[0.0, 1.0, 0.0]], [[0.0, 0.0, 1.0]], [[1.0, 0.0, 0.0]], [[0.3333333333333333, 0.5, 0.16666666666666666]], [[0.16666666666666666, 0.5833333333333334, 0.25]], [[0.0, 1.0, 0.0]], [[0.2222222222222222, 0.4444444444444444, 0.3333333333333333]], [[0.5, 0.0, 0.5]], [[0.0, 0.0, 1.0]], [[1.0, 0.0, 0.0]], [[0.0, 0.8, 0.2]], [[0.0, 1.0, 0.0]], [[0.0, 0.0, 1.0]], [[0.6666666666666666, 0.3333333333333333, 0.0]], [[1.0, 0.0, 0.0]], [[0.0, 1.0, 0.0]], [[0.3333333333333333, 0.0, 0.6666666666666666]], [[0.0, 0.0, 1.0]], [[1.0, 0.0, 0.0]], [[0.0, 1.0, 0.0]]]}, {"children_left": [1, 2, -1, 4, 5, 6, 7, 8, -1, 10, -1, -1, 13, -1, -1, -1, -1, 18, 19, 20, -1, 22, -1, -1, -1, -1, -1], "children_right": [26, 3, -1, 17, 16, 15, 12, 9, -1, 11, -1, -1, 14, -1, -1, -1, -1, 25, 24, 21, -1, 23, -1, -1, -1, -1, -1], "feature": [0, 0, -2, 0, 0, 0, 0, 0, -2, 0, -2, -2, 0, -2, -2, -2, -2, 0, 0, 0, -2, 0, -2, -2, -2, -2, -2], "threshold": [31.5, 18.5, -2.0, 26.5, 25.5, 24.5, 22.5, 20.0, -2.0, 21.5, -2.0, -2.0, 23.5, -2.0, -2.0, -2.0, -2.0, 30.5, 29.5, 27.5, -2.0, 28.5, -2.0, -2.0, -2.0, -2.0, -2.0], "value": [[[0.3, 0.325, 0.375]], [[0.375, 0.15625, 0.46875]], [[0.0, 0.0, 1.0]], [[0.42857142857142855, 0.17857142857142858, 0.39285714285714285]], [[0.5714285714285714, 0.21428571428571427, 0.21428571428571427]], [[0.6153846153846154, 0.15384615384615385, 0.23076923076923078]], [[0.4444444444444444, 0.2222222222222222, 0.3333333333333333]], [[0.8, 0.0, 0.2]], [[1.0, 0.0, 0.0]], [[0.6666666666666666, 0.0, 0.3333333333333333]], [[0.0, 0.0, 1.0]], [[1.0, 0.0, 0.0]], [[0.0, 0.5, 0.5]], [[0.0, 1.0, 0.0]], [[0.0, 0.0, 1.0]], [[1.0, 0.0, 0.0]], [[0.0, 1.0, 0.0]], [[0.2857142857142857, 0.14285714285714285, 0.5714285714285714]], [[0.16666666666666666, 0.16666666666666666, 0.6666666666666666]], [[0.2857142857142857, 0.2857142857142857, 0.42857142857142855]], [[0.0, 0.0, 1.0]], [[0.5, 0.5, 0.0]], [[1.0, 0.0, 0.0]], [[0.0, 1.0, 0.0]], [[0.0, 0.0, 1.0]], [[1.0, 0.0, 0.0]], [[0.0, 1.0, 0.0]]]}, {"children_left": [1, -1, 3, -1, 5, 6, -1, 8, -1, 10, 11, -1, -1, 14, -1, 16, -1, -1, 19, -1, -1], "children_right": [2, -1, 4, -1, 18, 7, -1, 9, -1, 13, 12, -1, -1, 15, -1, 17, -1, -1, 20, -1, -1], "feature": [0, -2, 0, -2, 0, 0, -2, 0, -2, 0, 0, -2, -2, 0, -2, 0, -2, -2, 0, -2, -2], "threshold": [18.5, -2.0, 19.5, -2.0, 27.5, 20.5, -2.0, 21.5, -2.0, 23.5, 22.5, -2.0, -2.0, 24.5, -2.0, 26.0, -2.0, -2.0, 31.5, -2.0, -2.0], "value": [[[0.45, 0.225, 0.325]], [[0.0, 0.0, 1.0]], [[0.5, 0.25, 0.25]], [[1.0, 0.0, 0.0]], [[0.3793103448275862, 0.3103448275862069, 0.3103448275862069]], [[0.16666666666666666, 0.3333333333333333, 0.5]], [[0.0, 1.0, 0.0]], [[0.21428571428571427, 0.14285714285714285, 0.6428571428571429]], [[0.0, 0.0, 1.0]], [[0.375, 0.25, 0.375]], [[0.5, 0.5, 0.0]], [[1.0, 0.0, 0.0]], [[0.0, 1.0, 0.0]], [[0.25, 0.0, 0.75]], [[0.0, 0.0, 1.0]], [[0.5, 0.0, 0.5]], [[1.0, 0.0, 0.0]], [[0.0, 0.0, 1.0]], [[0.7272727272727273, 0.2727272727272727, 0.0]], [[1.0, 0.0, 0.0]], [[0.0, 1.0, 0.0]]]}, {"children_left": [1, 2, 3, -1, 5, -1, 7, -1, 9, 10, 11, 12, -1, -1, -1, -1, 17, -1, 19, -1, 21, -1, 23, -1, -1, -1, -1], "children_right": [26, 25, 4, -1, 6, -1, 8, -1, 16, 15, 14, 13, -1, -1, -1, -1, 18, -1, 20, -1, 22, -1, 24, -1, -1, -1, -1], "feature": [0, 0, 0, -2, 0, -2, 0, -2, 0, 0, 0, 0, -2, -2, -2, -2, 0, -2, 0, -2, 0, -2, 0, -2, -2, -2, -2], "threshold": [31.0, 29.5, 18.5, -2.0, 19.5, -2.0, 20.5, -2.0, 24.5, 23.5, 22.5, 21.5, -2.0, -2.0, -2.0, -2.0, 25.5, -2.0, 26.5, -2.0, 27.5, -2.0, 28.5, -2.0, -2.0, -2.0, -2.0], "value": [[[0.3, 0.325, 0.375]], [[0.3333333333333333, 0.25, 0.4166666666666667]], [[0.3870967741935484, 0.2903225806451613, 0.3225806451612903]], [[0.0, 0.0, 1.0]], [[0.4444444444444444, 0.3333333333333333, 0.2222222222222222]], [[1.0, 0.0, 0.0]], [[0.34782608695652173, 0.391304347826087, 0.2608695652173913]], [[0.0, 1.0, 0.0]], [[0.4, 0.3, 0.3]], [[0.2222222222222222, 0.3333333333333333, 0.4444444444444444]], [[0.3333333333333333, 0.5, 0.16666666666666666]], [[0.6666666666666666, 0.0, 0.3333333333333333]], [[0.0, 0.0, 1.0]], [[1.0, 0.0, 0.0]], [[0.0, 1.0, 0.0]], [[0.0, 0.0, 1.0]], [[0.5454545454545454, 0.2727272727272727, 0.18181818181818182]], [[1.0, 0.0, 0.0]], [[0.2857142857142857, 0.42857142857142855, 0.2857142857142857]], [[0.0, 1.0, 0.0]], [[0.4, 0.2, 0.4]], [[0.0, 0.0, 1.0]], [[0.6666666666666666, 0.3333333333333333, 0.0]], [[1.0, 0.0, 0.0]], [[0.0, 1.0, 0.0]], [[0.0, 0.0, 1.0]], [[0.0, 1.0, 0.0]]]}, {"children_left": [1, 2, -1, -1, 5, 6, 7, 8, 9, -1, 11, -1, -1, -1, -1, -1, 17, 18, 19, 20, -1, -1, -1, -1, 25, -1, -1], "children_right": [4, 3, -1, -1, 16, 15, 14, 13, 10, -1, 12, -1, -1, -1, -1, -1, 24, 23, 22, 21, -1, -1, -1, -1, 26, -1, -1], "feature": [0, 0, -2, -2, 0, 0, 0, 0, 0, -2, 0, -2, -2, -2, -2, -2, 0, 0, 0, 0, -2, -2, -2, -2, 0, -2, -2], "threshold": [19.5, 18.5, -2.0, -2.0, 26.5, 25.0, 23.5, 22.5, 20.5, -2.0, 21.5, -2.0, -2.0, -2.0, -2.0, -2.0, 30.5, 29.5, 28.5, 27.5, -2.0, -2.0, -2.0, -2.0, 31.5, -2.0, -2.0], "value": [[[0.25, 0.375, 0.375]], [[0.6, 0.0, 0.4]], [[0.0, 0.0, 1.0]], [[1.0, 0.0, 0.0]], [[0.2, 0.42857142857142855, 0.37142857142857144]], [[0.0625, 0.625, 0.3125]], [[0.08333333333333333, 0.5, 0.4166666666666667]], [[0.1111111111111111, 0.6666666666666666, 0.2222222222222222]], [[0.2, 0.4, 0.4]], [[0.0, 1.0, 0.0]], [[0.3333333333333333, 0.0, 0.6666666666666666]], [[0.0, 0.0, 1.0]], [[1.0, 0.0, 0.0]], [[0.0, 1.0, 0.0]], [[0.0, 0.0, 1.0]], [[0.0, 1.0, 0.0]], [[0.3157894736842105, 0.2631578947368421, 0.42105263157894735]], [[0.21428571428571427, 0.21428571428571427, 0.5714285714285714]], [[0.375, 0.375, 0.25]], [[0.6, 0.0, 0.4]], [[0.0, 0.0, 1.0]], [[1.0, 0.0, 0.0]], [[0.0, 1.0, 0.0]], [[0.0, 0.0, 1.0]], [[0.6, 0.4, 0.0]], [[1.0, 0.0, 0.0]], [[0.0, 1.0, 0.0]]]}, {"children_left": [1, 2, -1, -1, 5, 6, -1, -1, 9, -1, 11, -1, 13, 14, -1, -1, 17, -1, 19, 20, -1, 22, -1, 24, -1, -1, -1], "children_right": [4, 3, -1, -1, 8, 7, -1, -1, 10, -1, 12, -1, 16, 15, -1, -1, 18, -1, 26, 21, -1, 23, -1, 25, -1, -1, -1], "feature": [0, 0, -2, -2, 0, 0, -2, -2, 0, -2, 0, -2, 0, 0, -2, -2, 0, -2, 0, 0, -2, 0, -2, 0, -2, -2, -2], "threshold": [19.5, 18.5, -2.0, -2.0, 21.5, 20.5, -2.0, -2.0, 22.5, -2.0, 23.5, -2.0, 25.5, 24.5, -2.0, -2.0, 26.5, -2.0, 31.5, 27.5, -2.0, 29.0, -2.0, 30.5, -2.0, -2.0, -2.0], "value": [[[0.425, 0.325, 0.25]], [[0.8333333333333334, 0.0, 0.16666666666666666]], [[0.0, 0.0, 1.0]], [[1.0, 0.0, 0.0]], [[0.35294117647058826, 0.38235294117647056, 0.2647058823529412]], [[0.0, 0.42857142857142855, 0.5714285714285714]], [[0.0, 1.0, 0.0]], [[0.0, 0.0, 1.0]], [[0.4444444444444444, 0.37037037037037035, 0.18518518518518517]], [[1.0, 0.0, 0.0]], [[0.34782608695652173, 0.43478260869565216, 0.21739130434782608]], [[0.0, 1.0, 0.0]], [[0.42105263157894735, 0.3157894736842105, 0.2631578947368421]], [[0.8, 0.0, 0.2]], [[0.0, 0.0, 1.0]], [[1.0, 0.0, 0.0]], [[0.2857142857142857, 0.42857142857142855, 0.2857142857142857]], [[0.0, 1.0, 0.0]], [[0.4, 0.2, 0.4]], [[0.5, 0.0, 0.5]], [[0.0, 0.0, 1.0]], [[0.6666666666666666, 0.0, 0.3333333333333333]], [[1.0, 0.0, 0.0]], [[0.5, 0.0, 0.5]], [[0.0, 0.0, 1.0]], [[1.0, 0.0, 0.0]], [[0.0, 1.0, 0.0]]]}, {"children_left": [1, 2, -1, 4, -1, 6, -1, -1, 9, 10, 11, -1, 13, -1, -1, -1, 17, 18, 19, -1, 21, -1, -1, -1, 25, -1, -1], "children_right": [8, 3, -1, 5, -1, 7, -1, -1, 16, 15, 12, -1, 14, -1, -1, -1, 24, 23, 20, -1, 22, -1, -1, -1, 26, -1, -1], "feature": [0, 0, -2, 0, -2, 0, -2, -2, 0, 0, 0, -2, 0, -2, -2, -2, 0, 0, 0, -2, 0, -2, -2, -2, 0, -2, -2], "threshold": [22.5, 18.5, -2.0, 20.0, -2.0, 21.5, -2.0, -2.0, 26.5, 25.5, 23.5, -2.0, 24.5, -2.0, -2.0, -2.0, 30.5, 29.5, 27.5, -2.0, 28.5, -2.0, -2.0, -2.0, 31.5, -2.0, -2.0], "value": [[[0.375, 0.25, 0.375]], [[0.6666666666666666, 0.0, 0.3333333333333333]], [[0.0, 0.0, 1.0]], [[0.8888888888888888, 0.0, 0.1111111111111111]], [[1.0, 0.0, 0.0]], [[0.6666666666666666, 0.0, 0.3333333333333333]], [[0.0, 0.0, 1.0]], [[1.0, 0.0, 0.0]], [[0.25, 0.35714285714285715, 0.39285714285714285]], [[0.1, 0.7, 0.2]], [[0.25, 0.25, 0.5]], [[0.0, 1.0, 0.0]], [[0.3333333333333333, 0.0, 0.6666666666666666]], [[0.0, 0.0, 1.0]], [[1.0, 0.0, 0.0]], [[0.0, 1.0, 0.0]], [[0.3333333333333333, 0.16666666666666666, 0.5]], [[0.21428571428571427, 0.14285714285714285, 0.6428571428571429]], [[0.375, 0.25, 0.375]], [[0.0, 0.0, 1.0]], [[0.6, 0.4, 0.0]], [[1.0, 0.0, 0.0]], [[0.0, 1.0, 0.0]], [[0.0, 0.0, 1.0]], [[0.75, 0.25, 0.0]], [[1.0, 0.0, 0.0]], [[0.0, 1.0, 0.0]]]}, {"children_left": [1, 2, 3, -1, -1, -1, 7, -1, 9, -1, 11, 12, -1, 14, -1, 16, 17, -1, 19, -1, -1, 22, -1, -1, -1], "children_right": [6, 5, 4, -1, -1, -1, 8, -1, 10, -1, 24, 13, -1, 15, -1, 21, 18, -1, 20, -1, -1, 23, -1, -1, -1], "feature": [0, 0, 0, -2, -2, -2, 0, -2, 0, -2, 0, 0, -2, 0, -2, 0, 0, -2, 0, -2, -2, 0, -2, -2, -2], "threshold": [21.5, 20.5, 19.0, -2.0, -2.0, -2.0, 22.5, -2.0, 23.5, -2.0, 31.5, 24.5, -2.0, 25.5, -2.0, 29.5, 27.0, -2.0, 28.5, -2.0, -2.0, 30.5, -2.0, -2.0, -2.0], "value": [[[0.35, 0.4, 0.25]], [[0.0, 0.2857142857142857, 0.7142857142857143]], [[0.0, 0.6666666666666666, 0.3333333333333333]], [[0.0, 0.0, 1.0]], [[0.0, 1.0, 0.0]], [[0.0, 0.0, 1.0]], [[0.42424242424242425, 0.42424242424242425, 0.15151515151515152]], [[1.0, 0.0, 0.0]], [[0.3448275862068966, 0.4827586206896552, 0.1724137931034483]], [[0.0, 1.0, 0.0]], [[0.4166666666666667, 0.375, 0.20833333333333334]], [[0.5, 0.25, 0.25]], [[0.0, 0.0, 1.0]], [[0.5555555555555556, 0.2777777777777778, 0.16666666666666666]], [[1.0, 0.0, 0.0]], [[0.38461538461538464, 0.38461538461538464, 0.23076923076923078]], [[0.2857142857142857, 0.7142857142857143, 0.0]], [[0.0, 1.0, 0.0]], [[0.5, 0.5, 0.0]], [[1.0, 0.0, 0.0]], [[0.0, 1.0, 0.0]], [[0.5, 0.0, 0.5]], [[0.0, 0.0, 1.0]], [[1.0, 0.0, 0.0]], [[0.0, 1.0, 0.0]]]}, {"children_left": [1, 2, -1, 4, 5, -1, -1, -1, 9, 10, -1, 12, 13, -1, -1, 16, -1, 18, -1, -1, 21, -1, 23, 24, -1, -1, -1], "children_right": [8, 3, -1, 7, 6, -1, -1, -1, 20, 11, -1, 15, 14, -1, -1, 17, -1, 19, -1, -1, 22, -1, 26, 25, -1, -1, -1], "feature": [0, 0, -2, 0, 0, -2, -2, -2, 0, 0, -2, 0, 0, -2, -2, 0, -2, 0, -2, -2, 0, -2, 0, 0, -2, -2, -2], "threshold": [21.5, 18.5, -2.0, 20.5, 19.5, -2.0, -2.0, -2.0, 28.5, 22.5, -2.0, 24.5, 23.5, -2.0, -2.0, 25.5, -2.0, 27.0, -2.0, -2.0, 29.5, -2.0, 31.5, 30.5, -2.0, -2.0, -2.0], "value": [[[0.325, 0.3, 0.375]], [[0.125, 0.125, 0.75]], [[0.0, 0.0, 1.0]], [[0.2, 0.2, 0.6]], [[0.5, 0.5, 0.0]], [[1.0, 0.0, 0.0]], [[0.0, 1.0, 0.0]], [[0.0, 0.0, 1.0]], [[0.4583333333333333, 0.4166666666666667, 0.125]], [[0.6, 0.26666666666666666, 0.13333333333333333]], [[1.0, 0.0, 0.0]], [[0.5, 0.3333333333333333, 0.16666666666666666]], [[0.0, 0.5, 0.5]], [[0.0, 1.0, 0.0]], [[0.0, 0.0, 1.0]], [[0.75, 0.25, 0.0]], [[1.0, 0.0, 0.0]], [[0.6, 0.4, 0.0]], [[0.0, 1.0, 0.0]], [[1.0, 0.0, 0.0]], [[0.2222222222222222, 0.6666666666666666, 0.1111111111111111]], [[0.0, 1.0, 0.0]], [[0.4, 0.4, 0.2]], [[0.6666666666666666, 0.0, 0.3333333333333333]], [[0.0, 0.0, 1.0]], [[1.0, 0.0, 0.0]], [[0.0, 1.0, 0.0]]]}, {"children_left": [1, -1, 3, 4, -1, -1, 7, -1, 9, -1, 11, -1, 13, 14, 15, -1, -1, 18, -1, 20, -1, 22, -1, 24, -1, -1, -1], "children_right": [2, -1, 6, 5, -1, -1, 8, -1, 10, -1, 12, -1, 26, 17, 16, -1, -1, 19, -1, 21, -1, 23, -1, 25, -1, -1, -1], "feature": [0, -2, 0, 0, -2, -2, 0, -2, 0, -2, 0, -2, 0, 0, 0, -2, -2, 0, -2, 0, -2, 0, -2, 0, -2, -2, -2], "threshold": [19.5, -2.0, 21.5, 20.5, -2.0, -2.0, 22.5, -2.0, 23.5, -2.0, 24.5, -2.0, 31.5, 26.5, 25.5, -2.0, -2.0, 27.5, -2.0, 28.5, -2.0, 29.5, -2.0, 30.5, -2.0, -2.0, -2.0], "value": [[[0.325, 0.325, 0.35]], [[1.0, 0.0, 0.0]], [[0.25, 0.3611111111111111, 0.3888888888888889]], [[0.0, 0.125, 0.875]], [[0.0, 1.0, 0.0]], [[0.0, 0.0, 1.0]], [[0.32142857142857145, 0.42857142857142855, 0.25]], [[1.0, 0.0, 0.0]], [[0.2692307692307692, 0.46153846153846156, 0.2692307692307692]], [[0.0, 1.0, 0.0]], [[0.3181818181818182, 0.36363636363636365, 0.3181818181818182]], [[0.0, 0.0, 1.0]], [[0.3684210526315789, 0.42105263157894735, 0.21052631578947367]], [[0.4117647058823529, 0.35294117647058826, 0.23529411764705882]], [[0.25, 0.75, 0.0]], [[1.0, 0.0, 0.0]], [[0.0, 1.0, 0.0]], [[0.46153846153846156, 0.23076923076923078, 0.3076923076923077]], [[0.0, 0.0, 1.0]], [[0.5454545454545454, 0.2727272727272727, 0.18181818181818182]], [[1.0, 0.0, 0.0]], [[0.2857142857142857, 0.42857142857142855, 0.2857142857142857]], [[0.0, 1.0, 0.0]], [[0.5, 0.0, 0.5]], [[0.0, 0.0, 1.0]], [[1.0, 0.0, 0.0]], [[0.0, 1.0, 0.0]]]}, {"children_left": [1, -1, 3, -1, 5, -1, 7, 8, 9, 10, -1, -1, -1, -1, 15, -1, 17, -1, 19, -1, 21, -1, 23, -1, -1], "children_right": [2, -1, 4, -1, 6, -1, 14, 13, 12, 11, -1, -1, -1, -1, 16, -1, 18, -1, 20, -1, 22, -1, 24, -1, -1], "feature": [0, -2, 0, -2, 0, -2, 0, 0, 0, 0, -2, -2, -2, -2, 0, -2, 0, -2, 0, -2, 0, -2, 0, -2, -2], "threshold": [18.5, -2.0, 19.5, -2.0, 20.5, -2.0, 24.5, 23.5, 22.5, 21.5, -2.0, -2.0, -2.0, -2.0, 25.5, -2.0, 26.5, -2.0, 27.5, -2.0, 29.0, -2.0, 31.0, -2.0, -2.0], "value": [[[0.45, 0.275, 0.275]], [[0.0, 0.0, 1.0]], [[0.4864864864864865, 0.2972972972972973, 0.21621621621621623]], [[1.0, 0.0, 0.0]], [[0.40625, 0.34375, 0.25]], [[0.0, 1.0, 0.0]], [[0.4482758620689655, 0.27586206896551724, 0.27586206896551724]], [[0.2727272727272727, 0.2727272727272727, 0.45454545454545453]], [[0.42857142857142855, 0.42857142857142855, 0.14285714285714285]], [[0.75, 0.0, 0.25]], [[0.0, 0.0, 1.0]], [[1.0, 0.0, 0.0]], [[0.0, 1.0, 0.0]], [[0.0, 0.0, 1.0]], [[0.5555555555555556, 0.2777777777777778, 0.16666666666666666]], [[1.0, 0.0, 0.0]], [[0.2727272727272727, 0.45454545454545453, 0.2727272727272727]], [[0.0, 1.0, 0.0]], [[0.42857142857142855, 0.14285714285714285, 0.42857142857142855]], [[0.0, 0.0, 1.0]], [[0.6, 0.2, 0.2]], [[1.0, 0.0, 0.0]], [[0.0, 0.5, 0.5]], [[0.0, 0.0, 1.0]], [[0.0, 1.0, 0.0]]]}, {"children_left": [1, 2, 3, -1, 5, 6, 7, 8, 9, -1, -1, -1, -1, -1, -1, 16, -1, 18, -1, -1, -1], "children_right": [20, 15, 4, -1, 14, 13, 12, 11, 10, -1, -1, -1, -1, -1, -1, 17, -1, 19, -1, -1, -1], "feature": [0, 0, 0, -2, 0, 0, 0, 0, 0, -2, -2, -2, -2, -2, -2, 0, -2, 0, -2, -2, -2], "threshold": [31.5, 24.5, 18.5, -2.0, 23.5, 22.5, 21.5, 20.5, 19.5, -2.0, -2.0, -2.0, -2.0, -2.0, -2.0, 26.0, -2.0, 30.5, -2.0, -2.0, -2.0], "value": [[[0.35, 0.3, 0.35]], [[0.4117647058823529, 0.17647058823529413, 0.4117647058823529]], [[0.23809523809523808, 0.2857142857142857, 0.47619047619047616]], [[0.0, 0.0, 1.0]], [[0.29411764705882354, 0.35294117647058826, 0.35294117647058826]], [[0.38461538461538464, 0.46153846153846156, 0.15384615384615385]], [[0.5555555555555556, 0.2222222222222222, 0.2222222222222222]], [[0.2, 0.4, 0.4]], [[0.3333333333333333, 0.6666666666666666, 0.0]], [[1.0, 0.0, 0.0]], [[0.0, 1.0, 0.0]], [[0.0, 0.0, 1.0]], [[1.0, 0.0, 0.0]], [[0.0, 1.0, 0.0]], [[0.0, 0.0, 1.0]], [[0.6923076923076923, 0.0, 0.3076923076923077]], [[1.0, 0.0, 0.0]], [[0.5, 0.0, 0.5]], [[0.0, 0.0, 1.0]], [[1.0, 0.0, 0.0]], [[0.0, 1.0, 0.0]]]}, {"children_left": [1, 2, 3, 4, -1, 6, -1, 8, 9, 10, 11, -1, 13, -1, -1, 16, -1, 18, -1, -1, 21, -1, -1, -1, -1, -1, -1], "children_right": [26, 25, 24, 5, -1, 7, -1, 23, 20, 15, 12, -1, 14, -1, -1, 17, -1, 19, -1, -1, 22, -1, -1, -1, -1, -1, -1], "feature": [0, 0, 0, 0, -2, 0, -2, 0, 0, 0, 0, -2, 0, -2, -2, 0, -2, 0, -2, -2, 0, -2, -2, -2, -2, -2, -2], "threshold": [31.5, 30.5, 29.5, 18.5, -2.0, 19.5, -2.0, 28.5, 26.5, 22.5, 20.5, -2.0, 21.5, -2.0, -2.0, 23.5, -2.0, 25.0, -2.0, -2.0, 27.5, -2.0, -2.0, -2.0, -2.0, -2.0, -2.0], "value": [[[0.25, 0.325, 0.425]], [[0.2702702702702703, 0.2702702702702703, 0.4594594594594595]], [[0.20588235294117646, 0.29411764705882354, 0.5]], [[0.2413793103448276, 0.3448275862068966, 0.41379310344827586]], [[0.0, 0.0, 1.0]], [[0.28, 0.4, 0.32]], [[1.0, 0.0, 0.0]], [[0.14285714285714285, 0.47619047619047616, 0.38095238095238093]], [[0.16666666666666666, 0.3888888888888889, 0.4444444444444444]], [[0.09090909090909091, 0.6363636363636364, 0.2727272727272727]], [[0.2, 0.4, 0.4]], [[0.0, 1.0, 0.0]], [[0.3333333333333333, 0.0, 0.6666666666666666]], [[0.0, 0.0, 1.0]], [[1.0, 0.0, 0.0]], [[0.0, 0.8333333333333334, 0.16666666666666666]], [[0.0, 1.0, 0.0]], [[0.0, 0.5, 0.5]], [[0.0, 0.0, 1.0]], [[0.0, 1.0, 0.0]], [[0.2857142857142857, 0.0, 0.7142857142857143]], [[0.0, 0.0, 1.0]], [[1.0, 0.0, 0.0]], [[0.0, 1.0, 0.0]], [[0.0, 0.0, 1.0]], [[1.0, 0.0, 0.0]], [[0.0, 1.0, 0.0]]]}, {"children_left": [1, -1, 3, 4, 5, 6, 7, 8, -1, 10, 11, -1, -1, 14, -1, 16, -1, 18, -1, -1, -1, -1, -1, -1, -1], "children_right": [2, -1, 24, 23, 22, 21, 20, 9, -1, 13, 12, -1, -1, 15, -1, 17, -1, 19, -1, -1, -1, -1, -1, -1, -1], "feature": [0, -2, 0, 0, 0, 0, 0, 0, -2, 0, 0, -2, -2, 0, -2, 0, -2, 0, -2, -2, -2, -2, -2, -2, -2], "threshold": [19.5, -2.0, 31.5, 30.5, 29.5, 28.0, 26.5, 20.5, -2.0, 22.5, 21.5, -2.0, -2.0, 23.5, -2.0, 24.5, -2.0, 25.5, -2.0, -2.0, -2.0, -2.0, -2.0, -2.0, -2.0], "value": [[[0.4, 0.4, 0.2]], [[1.0, 0.0, 0.0]], [[0.29411764705882354, 0.47058823529411764, 0.23529411764705882]], [[0.3448275862068966, 0.3793103448275862, 0.27586206896551724]], [[0.17391304347826086, 0.4782608695652174, 0.34782608695652173]], [[0.19047619047619047, 0.5238095238095238, 0.2857142857142857]], [[0.2222222222222222, 0.4444444444444444, 0.3333333333333333]], [[0.26666666666666666, 0.5333333333333333, 0.2]], [[0.0, 1.0, 0.0]], [[0.3076923076923077, 0.46153846153846156, 0.23076923076923078]], [[0.6666666666666666, 0.0, 0.3333333333333333]], [[0.0, 0.0, 1.0]], [[1.0, 0.0, 0.0]], [[0.2, 0.6, 0.2]], [[0.0, 1.0, 0.0]], [[0.3333333333333333, 0.3333333333333333, 0.3333333333333333]], [[0.0, 0.0, 1.0]], [[0.5, 0.5, 0.0]], [[1.0, 0.0, 0.0]], [[0.0, 1.0, 0.0]], [[0.0, 0.0, 1.0]], [[0.0, 1.0, 0.0]], [[0.0, 0.0, 1.0]], [[1.0, 0.0, 0.0]], [[0.0, 1.0, 0.0]]]}, {"children_left": [1, -1, 3, 4, 5, 6, -1, 8, 9, 10, -1, -1, -1, -1, 15, -1, 17, 18, -1, -1, -1, -1, 23, -1, 25, -1, -1], "children_right": [2, -1, 22, 21, 14, 7, -1, 13, 12, 11, -1, -1, -1, -1, 16, -1, 20, 19, -1, -1, -1, -1, 24, -1, 26, -1, -1], "feature": [0, -2, 0, 0, 0, 0, -2, 0, 0, 0, -2, -2, -2, -2, 0, -2, 0, 0, -2, -2, -2, -2, 0, -2, 0, -2, -2], "threshold": [18.5, -2.0, 29.5, 28.5, 24.5, 19.5, -2.0, 23.5, 22.0, 20.5, -2.0, -2.0, -2.0, -2.0, 25.5, -2.0, 27.5, 26.5, -2.0, -2.0, -2.0, -2.0, 30.5, -2.0, 31.5, -2.0, -2.0], "value": [[[0.35, 0.3, 0.35]], [[0.0, 0.0, 1.0]], [[0.3783783783783784, 0.32432432432432434, 0.2972972972972973]], [[0.43333333333333335, 0.36666666666666664, 0.2]], [[0.5, 0.2692307692307692, 0.23076923076923078]], [[0.25, 0.4166666666666667, 0.3333333333333333]], [[1.0, 0.0, 0.0]], [[0.0, 0.5555555555555556, 0.4444444444444444]], [[0.0, 0.7142857142857143, 0.2857142857142857]], [[0.0, 0.5, 0.5]], [[0.0, 1.0, 0.0]], [[0.0, 0.0, 1.0]], [[0.0, 1.0, 0.0]], [[0.0, 0.0, 1.0]], [[0.7142857142857143, 0.14285714285714285, 0.14285714285714285]], [[1.0, 0.0, 0.0]], [[0.5, 0.25, 0.25]], [[0.0, 0.5, 0.5]], [[0.0, 1.0, 0.0]], [[0.0, 0.0, 1.0]], [[1.0, 0.0, 0.0]], [[0.0, 1.0, 0.0]], [[0.14285714285714285, 0.14285714285714285, 0.7142857142857143]], [[0.0, 0.0, 1.0]], [[0.5, 0.5, 0.0]], [[1.0, 0.0, 0.0]], [[0.0, 1.0, 0.0]]]}, {"children_left": [1, -1, 3, -1, 5, -1, 7, -1, 9, -1, 11, -1, 13, 14, 15, 16, -1, 18, -1, 20, -1, 22, -1, -1, -1, -1, -1], "children_right": [2, -1, 4, -1, 6, -1, 8, -1, 10, -1, 12, -1, 26, 25, 24, 17, -1, 19, -1, 21, -1, 23, -1, -1, -1, -1, -1], "feature": [0, -2, 0, -2, 0, -2, 0, -2, 0, -2, 0, -2, 0, 0, 0, 0, -2, 0, -2, 0, -2, 0, -2, -2, -2, -2, -2], "threshold": [18.5, -2.0, 19.5, -2.0, 20.5, -2.0, 21.5, -2.0, 22.5, -2.0, 23.5, -2.0, 31.5, 30.5, 29.5, 24.5, -2.0, 25.5, -2.0, 27.0, -2.0, 28.5, -2.0, -2.0, -2.0, -2.0, -2.0], "value": [[[0.35, 0.35, 0.3]], [[0.0, 0.0, 1.0]], [[0.3783783783783784, 0.3783783783783784, 0.24324324324324326]], [[1.0, 0.0, 0.0]], [[0.28125, 0.4375, 0.28125]], [[0.0, 1.0, 0.0]], [[0.3103448275862069, 0.3793103448275862, 0.3103448275862069]], [[0.0, 0.0, 1.0]], [[0.36, 0.44, 0.2]], [[1.0, 0.0, 0.0]], [[0.2727272727272727, 0.5, 0.22727272727272727]], [[0.0, 1.0, 0.0]], [[0.3333333333333333, 0.3888888888888889, 0.2777777777777778]], [[0.4, 0.26666666666666666, 0.3333333333333333]], [[0.25, 0.3333333333333333, 0.4166666666666667]], [[0.3333333333333333, 0.4444444444444444, 0.2222222222222222]], [[0.0, 0.0, 1.0]], [[0.42857142857142855, 0.5714285714285714, 0.0]], [[1.0, 0.0, 0.0]], [[0.2, 0.8, 0.0]], [[0.0, 1.0, 0.0]], [[0.3333333333333333, 0.6666666666666666, 0.0]], [[1.0, 0.0, 0.0]], [[0.0, 1.0, 0.0]], [[0.0, 0.0, 1.0]], [[1.0, 0.0, 0.0]], [[0.0, 1.0, 0.0]]]}, {"children_left": [1, 2, 3, 4, -1, 6, -1, -1, -1, -1, 11, -1, 13, 14, -1, -1, 17, 18, 19, -1, -1, -1, 23, -1, 25, -1, -1], "children_right": [10, 9, 8, 5, -1, 7, -1, -1, -1, -1, 12, -1, 16, 15, -1, -1, 22, 21, 20, -1, -1, -1, 24, -1, 26, -1, -1], "feature": [0, 0, 0, 0, -2, 0, -2, -2, -2, -2, 0, -2, 0, 0, -2, -2, 0, 0, 0, -2, -2, -2, 0, -2, 0, -2, -2], "threshold": [22.5, 21.5, 20.5, 18.5, -2.0, 19.5, -2.0, -2.0, -2.0, -2.0, 23.5, -2.0, 25.5, 24.5, -2.0, -2.0, 29.5, 28.0, 26.5, -2.0, -2.0, -2.0, 30.5, -2.0, 31.5, -2.0, -2.0], "value": [[[0.375, 0.35, 0.275]], [[0.5789473684210527, 0.05263157894736842, 0.3684210526315789]], [[0.3333333333333333, 0.08333333333333333, 0.5833333333333334]], [[0.5, 0.125, 0.375]], [[0.0, 0.0, 1.0]], [[0.8, 0.2, 0.0]], [[1.0, 0.0, 0.0]], [[0.0, 1.0, 0.0]], [[0.0, 0.0, 1.0]], [[1.0, 0.0, 0.0]], [[0.19047619047619047, 0.6190476190476191, 0.19047619047619047]], [[0.0, 1.0, 0.0]], [[0.23529411764705882, 0.5294117647058824, 0.23529411764705882]], [[0.75, 0.0, 0.25]], [[0.0, 0.0, 1.0]], [[1.0, 0.0, 0.0]], [[0.07692307692307693, 0.6923076923076923, 0.23076923076923078]], [[0.0, 0.875, 0.125]], [[0.0, 0.75, 0.25]], [[0.0, 1.0, 0.0]], [[0.0, 0.0, 1.0]], [[0.0, 1.0, 0.0]], [[0.2, 0.4, 0.4]], [[0.0, 0.0, 1.0]], [[0.3333333333333333, 0.6666666666666666, 0.0]], [[1.0, 0.0, 0.0]], [[0.0, 1.0, 0.0]]]}, {"children_left": [1, 2, 3, 4, 5, -1, -1, -1, -1, 10, -1, 12, -1, 14, -1, 16, -1, 18, 19, -1, 21, -1, -1, 24, -1, -1, -1], "children_right": [26, 9, 8, 7, 6, -1, -1, -1, -1, 11, -1, 13, -1, 15, -1, 17, -1, 23, 20, -1, 22, -1, -1, 25, -1, -1, -1], "feature": [0, 0, 0, 0, 0, -2, -2, -2, -2, 0, -2, 0, -2, 0, -2, 0, -2, 0, 0, -2, 0, -2, -2, 0, -2, -2, -2], "threshold": [31.5, 21.5, 20.5, 19.5, 18.5, -2.0, -2.0, -2.0, -2.0, 22.5, -2.0, 23.5, -2.0, 24.5, -2.0, 25.5, -2.0, 29.5, 27.0, -2.0, 28.5, -2.0, -2.0, 30.5, -2.0, -2.0, -2.0], "value": [[[0.35, 0.4, 0.25]], [[0.3888888888888889, 0.3333333333333333, 0.2777777777777778]], [[0.1111111111111111, 0.3333333333333333, 0.5555555555555556]], [[0.16666666666666666, 0.5, 0.3333333333333333]], [[0.3333333333333333, 0.0, 0.6666666666666666]], [[0.0, 0.0, 1.0]], [[1.0, 0.0, 0.0]], [[0.0, 1.0, 0.0]], [[0.0, 0.0, 1.0]], [[0.48148148148148145, 0.3333333333333333, 0.18518518518518517]], [[1.0, 0.0, 0.0]], [[0.3333333333333333, 0.42857142857142855, 0.23809523809523808]], [[0.0, 1.0, 0.0]], [[0.4117647058823529, 0.29411764705882354, 0.29411764705882354]], [[0.0, 0.0, 1.0]], [[0.4666666666666667, 0.3333333333333333, 0.2]], [[1.0, 0.0, 0.0]], [[0.2727272727272727, 0.45454545454545453, 0.2727272727272727]], [[0.16666666666666666, 0.8333333333333334, 0.0]], [[0.0, 1.0, 0.0]], [[0.3333333333333333, 0.6666666666666666, 0.0]], [[1.0, 0.0, 0.0]], [[0.0, 1.0, 0.0]], [[0.4, 0.0, 0.6]], [[0.0, 0.0, 1.0]], [[1.0, 0.0, 0.0]], [[0.0, 1.0, 0.0]]]}, {"children_left": [1, 2, -1, -1, 5, -1, 7, -1, 9, 10, 11, 12, -1, 14, -1, 16, -1, -1, 19, 20, 21, -1, -1, -1, -1, -1, -1], "children_right": [4, 3, -1, -1, 6, -1, 8, -1, 26, 25, 18, 13, -1, 15, -1, 17, -1, -1, 24, 23, 22, -1, -1, -1, -1, -1, -1], "feature": [0, 0, -2, -2, 0, -2, 0, -2, 0, 0, 0, 0, -2, 0, -2, 0, -2, -2, 0, 0, 0, -2, -2, -2, -2, -2, -2], "threshold": [19.5, 18.5, -2.0, -2.0, 20.5, -2.0, 21.5, -2.0, 31.5, 30.5, 25.5, 22.5, -2.0, 23.5, -2.0, 24.5, -2.0, -2.0, 29.5, 28.0, 26.5, -2.0, -2.0, -2.0, -2.0, -2.0, -2.0], "value": [[[0.325, 0.35, 0.325]], [[0.8571428571428571, 0.0, 0.14285714285714285]], [[0.0, 0.0, 1.0]], [[1.0, 0.0, 0.0]], [[0.21212121212121213, 0.42424242424242425, 0.36363636363636365]], [[0.0, 1.0, 0.0]], [[0.2413793103448276, 0.3448275862068966, 0.41379310344827586]], [[0.0, 0.0, 1.0]], [[0.28, 0.4, 0.32]], [[0.3181818181818182, 0.3181818181818182, 0.36363636363636365]], [[0.21052631578947367, 0.3684210526315789, 0.42105263157894735]], [[0.5714285714285714, 0.2857142857142857, 0.14285714285714285]], [[1.0, 0.0, 0.0]], [[0.4, 0.4, 0.2]], [[0.0, 1.0, 0.0]], [[0.6666666666666666, 0.0, 0.3333333333333333]], [[0.0, 0.0, 1.0]], [[1.0, 0.0, 0.0]], [[0.0, 0.4166666666666667, 0.5833333333333334]], [[0.0, 0.5555555555555556, 0.4444444444444444]], [[0.0, 0.2, 0.8]], [[0.0, 1.0, 0.0]], [[0.0, 0.0, 1.0]], [[0.0, 1.0, 0.0]], [[0.0, 0.0, 1.0]], [[1.0, 0.0, 0.0]], [[0.0, 1.0, 0.0]]]}, {"children_left": [1, 2, 3, 4, 5, 6, -1, -1, -1, 10, -1, -1, -1, -1, 15, -1, 17, 18, 19, -1, 21, 22, -1, -1, -1, -1, 27, -1, -1], "children_right": [14, 13, 12, 9, 8, 7, -1, -1, -1, 11, -1, -1, -1, -1, 16, -1, 26, 25, 20, -1, 24, 23, -1, -1, -1, -1, 28, -1, -1], "feature": [0, 0, 0, 0, 0, 0, -2, -2, -2, 0, -2, -2, -2, -2, 0, -2, 0, 0, 0, -2, 0, 0, -2, -2, -2, -2, 0, -2, -2], "threshold": [24.5, 23.5, 22.5, 20.5, 19.5, 18.5, -2.0, -2.0, -2.0, 21.5, -2.0, -2.0, -2.0, -2.0, 25.5, -2.0, 30.5, 29.5, 26.5, -2.0, 28.5, 27.5, -2.0, -2.0, -2.0, -2.0, 31.5, -2.0, -2.0], "value": [[[0.275, 0.375, 0.35]], [[0.16, 0.36, 0.48]], [[0.2222222222222222, 0.5, 0.2777777777777778]], [[0.3333333333333333, 0.25, 0.4166666666666667]], [[0.42857142857142855, 0.42857142857142855, 0.14285714285714285]], [[0.75, 0.0, 0.25]], [[0.0, 0.0, 1.0]], [[1.0, 0.0, 0.0]], [[0.0, 1.0, 0.0]], [[0.2, 0.0, 0.8]], [[0.0, 0.0, 1.0]], [[1.0, 0.0, 0.0]], [[0.0, 1.0, 0.0]], [[0.0, 0.0, 1.0]], [[0.4666666666666667, 0.4, 0.13333333333333333]], [[1.0, 0.0, 0.0]], [[0.3333333333333333, 0.5, 0.16666666666666666]], [[0.125, 0.625, 0.25]], [[0.14285714285714285, 0.7142857142857143, 0.14285714285714285]], [[0.0, 1.0, 0.0]], [[0.25, 0.5, 0.25]], [[0.5, 0.0, 0.5]], [[0.0, 0.0, 1.0]], [[1.0, 0.0, 0.0]], [[0.0, 1.0, 0.0]], [[0.0, 0.0, 1.0]], [[0.75, 0.25, 0.0]], [[1.0, 0.0, 0.0]], [[0.0, 1.0, 0.0]]]}, {"children_left": [1, 2, 3, 4, 5, -1, 7, -1, -1, -1, -1, 12, 13, 14, 15, -1, -1, -1, 19, 20, -1, -1, -1, -1, 25, -1, -1], "children_right": [24, 11, 10, 9, 6, -1, 8, -1, -1, -1, -1, 23, 18, 17, 16, -1, -1, -1, 22, 21, -1, -1, -1, -1, 26, -1, -1], "feature": [0, 0, 0, 0, 0, -2, 0, -2, -2, -2, -2, 0, 0, 0, 0, -2, -2, -2, 0, 0, -2, -2, -2, -2, 0, -2, -2], "threshold": [30.5, 22.5, 21.5, 20.5, 18.5, -2.0, 19.5, -2.0, -2.0, -2.0, -2.0, 29.5, 26.5, 25.0, 23.5, -2.0, -2.0, -2.0, 28.5, 27.5, -2.0, -2.0, -2.0, -2.0, 31.5, -2.0, -2.0], "value": [[[0.25, 0.425, 0.325]], [[0.15151515151515152, 0.45454545454545453, 0.3939393939393939]], [[0.3, 0.1, 0.6]], [[0.2222222222222222, 0.1111111111111111, 0.6666666666666666]], [[0.4, 0.2, 0.4]], [[0.0, 0.0, 1.0]], [[0.6666666666666666, 0.3333333333333333, 0.0]], [[1.0, 0.0, 0.0]], [[0.0, 1.0, 0.0]], [[0.0, 0.0, 1.0]], [[1.0, 0.0, 0.0]], [[0.08695652173913043, 0.6086956521739131, 0.30434782608695654]], [[0.1, 0.7, 0.2]], [[0.0, 0.8333333333333334, 0.16666666666666666]], [[0.0, 0.5, 0.5]], [[0.0, 1.0, 0.0]], [[0.0, 0.0, 1.0]], [[0.0, 1.0, 0.0]], [[0.25, 0.5, 0.25]], [[0.5, 0.0, 0.5]], [[0.0, 0.0, 1.0]], [[1.0, 0.0, 0.0]], [[0.0, 1.0, 0.0]], [[0.0, 0.0, 1.0]], [[0.7142857142857143, 0.2857142857142857, 0.0]], [[1.0, 0.0, 0.0]], [[0.0, 1.0, 0.0]]]}, {"children_left": [1, 2, -1, 4, -1, 6, 7, -1, -1, -1, 11, -1, 13, -1, 15, -1, 17, 18, -1, -1, 21, -1, 23, -1, 25, -1, -1], "children_right": [10, 3, -1, 5, -1, 9, 8, -1, -1, -1, 12, -1, 14, -1, 16, -1, 20, 19, -1, -1, 22, -1, 24, -1, 26, -1, -1], "feature": [0, 0, -2, 0, -2, 0, 0, -2, -2, -2, 0, -2, 0, -2, 0, -2, 0, 0, -2, -2, 0, -2, 0, -2, 0, -2, -2], "threshold": [22.5, 18.5, -2.0, 19.5, -2.0, 21.5, 20.5, -2.0, -2.0, -2.0, 24.0, -2.0, 25.5, -2.0, 26.5, -2.0, 28.5, 27.5, -2.0, -2.0, 29.5, -2.0, 30.5, -2.0, 31.5, -2.0, -2.0], "value": [[[0.45, 0.4, 0.15]], [[0.6923076923076923, 0.07692307692307693, 0.23076923076923078]], [[0.0, 0.0, 1.0]], [[0.75, 0.08333333333333333, 0.16666666666666666]], [[1.0, 0.0, 0.0]], [[0.5, 0.16666666666666666, 0.3333333333333333]], [[0.0, 0.3333333333333333, 0.6666666666666666]], [[0.0, 1.0, 0.0]], [[0.0, 0.0, 1.0]], [[1.0, 0.0, 0.0]], [[0.3333333333333333, 0.5555555555555556, 0.1111111111111111]], [[0.0, 1.0, 0.0]], [[0.42857142857142855, 0.42857142857142855, 0.14285714285714285]], [[1.0, 0.0, 0.0]], [[0.3333333333333333, 0.5, 0.16666666666666666]], [[0.0, 1.0, 0.0]], [[0.42857142857142855, 0.35714285714285715, 0.21428571428571427]], [[0.8333333333333334, 0.0, 0.16666666666666666]], [[0.0, 0.0, 1.0]], [[1.0, 0.0, 0.0]], [[0.125, 0.625, 0.25]], [[0.0, 1.0, 0.0]], [[0.25, 0.25, 0.5]], [[0.0, 0.0, 1.0]], [[0.5, 0.5, 0.0]], [[1.0, 0.0, 0.0]], [[0.0, 1.0, 0.0]]]}, {"children_left": [1, 2, 3, -1, 5, -1, 7, 8, 9, 10, -1, 12, -1, -1, -1, -1, 17, -1, 19, -1, 21, -1, 23, -1, -1, -1, -1], "children_right": [26, 25, 4, -1, 6, -1, 16, 15, 14, 11, -1, 13, -1, -1, -1, -1, 18, -1, 20, -1, 22, -1, 24, -1, -1, -1, -1], "feature": [0, 0, 0, -2, 0, -2, 0, 0, 0, 0, -2, 0, -2, -2, -2, -2, 0, -2, 0, -2, 0, -2, 0, -2, -2, -2, -2], "threshold": [31.0, 29.5, 18.5, -2.0, 19.5, -2.0, 24.5, 23.5, 22.5, 20.5, -2.0, 21.5, -2.0, -2.0, -2.0, -2.0, 25.5, -2.0, 26.5, -2.0, 27.5, -2.0, 28.5, -2.0, -2.0, -2.0, -2.0], "value": [[[0.275, 0.275, 0.45]], [[0.2894736842105263, 0.23684210526315788, 0.47368421052631576]], [[0.3235294117647059, 0.2647058823529412, 0.4117647058823529]], [[0.0, 0.0, 1.0]], [[0.3548387096774194, 0.2903225806451613, 0.3548387096774194]], [[1.0, 0.0, 0.0]], [[0.3103448275862069, 0.3103448275862069, 0.3793103448275862]], [[0.13333333333333333, 0.3333333333333333, 0.5333333333333333]], [[0.18181818181818182, 0.45454545454545453, 0.36363636363636365]], [[0.25, 0.25, 0.5]], [[0.0, 1.0, 0.0]], [[0.3333333333333333, 0.0, 0.6666666666666666]], [[0.0, 0.0, 1.0]], [[1.0, 0.0, 0.0]], [[0.0, 1.0, 0.0]], [[0.0, 0.0, 1.0]], [[0.5, 0.2857142857142857, 0.21428571428571427]], [[1.0, 0.0, 0.0]], [[0.125, 0.5, 0.375]], [[0.0, 1.0, 0.0]], [[0.2, 0.2, 0.6]], [[0.0, 0.0, 1.0]], [[0.5, 0.5, 0.0]], [[1.0, 0.0, 0.0]], [[0.0, 1.0, 0.0]], [[0.0, 0.0, 1.0]], [[0.0, 1.0, 0.0]]]}, {"children_left": [1, 2, -1, -1, 5, -1, 7, -1, 9, -1, 11, -1, 13, -1, 15, 16, -1, 18, 19, -1, 21, -1, -1, -1, 25, -1, 27, -1, -1], "children_right": [4, 3, -1, -1, 6, -1, 8, -1, 10, -1, 12, -1, 14, -1, 24, 17, -1, 23, 20, -1, 22, -1, -1, -1, 26, -1, 28, -1, -1], "feature": [0, 0, -2, -2, 0, -2, 0, -2, 0, -2, 0, -2, 0, -2, 0, 0, -2, 0, 0, -2, 0, -2, -2, -2, 0, -2, 0, -2, -2], "threshold": [19.5, 18.5, -2.0, -2.0, 20.5, -2.0, 21.5, -2.0, 22.5, -2.0, 23.5, -2.0, 24.5, -2.0, 29.5, 25.5, -2.0, 28.5, 26.5, -2.0, 27.5, -2.0, -2.0, -2.0, 30.5, -2.0, 31.5, -2.0, -2.0], "value": [[[0.275, 0.3, 0.425]], [[0.6, 0.0, 0.4]], [[0.0, 0.0, 1.0]], [[1.0, 0.0, 0.0]], [[0.22857142857142856, 0.34285714285714286, 0.42857142857142855]], [[0.0, 1.0, 0.0]], [[0.25806451612903225, 0.25806451612903225, 0.4838709677419355]], [[0.0, 0.0, 1.0]], [[0.3076923076923077, 0.3076923076923077, 0.38461538461538464]], [[1.0, 0.0, 0.0]], [[0.18181818181818182, 0.36363636363636365, 0.45454545454545453]], [[0.0, 1.0, 0.0]], [[0.2, 0.3, 0.5]], [[0.0, 0.0, 1.0]], [[0.25, 0.375, 0.375]], [[0.3333333333333333, 0.5555555555555556, 0.1111111111111111]], [[1.0, 0.0, 0.0]], [[0.14285714285714285, 0.7142857142857143, 0.14285714285714285]], [[0.25, 0.5, 0.25]], [[0.0, 1.0, 0.0]], [[0.5, 0.0, 0.5]], [[0.0, 0.0, 1.0]], [[1.0, 0.0, 0.0]], [[0.0, 1.0, 0.0]], [[0.14285714285714285, 0.14285714285714285, 0.7142857142857143]], [[0.0, 0.0, 1.0]], [[0.5, 0.5, 0.0]], [[1.0, 0.0, 0.0]], [[0.0, 1.0, 0.0]]]}, {"children_left": [1, 2, -1, -1, 5, 6, 7, 8, -1, -1, -1, 12, -1, 14, -1, 16, 17, -1, 19, -1, -1, 22, -1, -1, -1], "children_right": [4, 3, -1, -1, 24, 11, 10, 9, -1, -1, -1, 13, -1, 15, -1, 21, 18, -1, 20, -1, -1, 23, -1, -1, -1], "feature": [0, 0, -2, -2, 0, 0, 0, 0, -2, -2, -2, 0, -2, 0, -2, 0, 0, -2, 0, -2, -2, 0, -2, -2, -2], "threshold": [20.0, 18.5, -2.0, -2.0, 31.5, 24.5, 23.5, 22.0, -2.0, -2.0, -2.0, 25.5, -2.0, 26.5, -2.0, 29.5, 27.5, -2.0, 28.5, -2.0, -2.0, 30.5, -2.0, -2.0, -2.0], "value": [[[0.35, 0.325, 0.325]], [[0.8571428571428571, 0.0, 0.14285714285714285]], [[0.0, 0.0, 1.0]], [[1.0, 0.0, 0.0]], [[0.24242424242424243, 0.3939393939393939, 0.36363636363636365]], [[0.27586206896551724, 0.3103448275862069, 0.41379310344827586]], [[0.0, 0.42857142857142855, 0.5714285714285714]], [[0.0, 0.6666666666666666, 0.3333333333333333]], [[0.0, 0.0, 1.0]], [[0.0, 1.0, 0.0]], [[0.0, 0.0, 1.0]], [[0.5333333333333333, 0.2, 0.26666666666666666]], [[1.0, 